{"learner":{"attributes":{"best_iteration":"99","best_ntree_limit":"100","scikit_learn":"{\"use_label_encoder\": false, \"n_estimators\": 100, \"objective\": \"multi:softmax\", \"max_depth\": null, \"max_leaves\": null, \"max_bin\": null, \"grow_policy\": null, \"learning_rate\": null, \"verbosity\": null, \"booster\": null, \"tree_method\": null, \"gamma\": null, \"min_child_weight\": null, \"max_delta_step\": null, \"subsample\": null, \"sampling_method\": null, \"colsample_bytree\": null, \"colsample_bylevel\": null, \"colsample_bynode\": null, \"reg_alpha\": null, \"reg_lambda\": null, \"scale_pos_weight\": null, \"base_score\": null, \"missing\": NaN, \"num_parallel_tree\": null, \"random_state\": null, \"n_jobs\": -1, \"monotone_constraints\": null, \"interaction_constraints\": null, \"importance_type\": null, \"gpu_id\": null, \"validate_parameters\": null, \"predictor\": null, \"enable_categorical\": false, \"feature_types\": null, \"max_cat_to_onehot\": null, \"max_cat_threshold\": null, \"eval_metric\": \"logloss\", \"early_stopping_rounds\": null, \"callbacks\": null, \"classes_\": [0, 1, 2, 3, 4, 5, 6, 7, 8, 9, 10, 11, 12, 13, 14, 15, 16, 17, 18, 19, 20, 21, 22, 23, 24, 25, 26, 27, 28, 29, 30, 31, 32, 33, 34, 35, 36, 37, 38, 39, 40, 41, 42, 43, 44, 45, 46, 47, 48, 49, 50, 51], \"n_classes_\": 52, \"_estimator_type\": \"classifier\"}"},"feature_names":[],"feature_types":[],"gradient_booster":{"model":{"gbtree_model_param":{"num_parallel_tree":"1","num_trees":"5200","size_leaf_vector":"0"},"tree_info":[0,1,2,3,4,5,6,7,8,9,10,11,12,13,14,15,16,17,18,19,20,21,22,23,24,25,26,27,28,29,30,31,32,33,34,35,36,37,38,39,40,41,42,43,44,45,46,47,48,49,50,51,0,1,2,3,4,5,6,7,8,9,10,11,12,13,14,15,16,17,18,19,20,21,22,23,24,25,26,27,28,29,30,31,32,33,34,35,36,37,38,39,40,41,42,43,44,45,46,47,48,49,50,51,0,1,2,3,4,5,6,7,8,9,10,11,12,13,14,15,16,17,18,19,20,21,22,23,24,25,26,27,28,29,30,31,32,33,34,35,36,37,38,39,40,41,42,43,44,45,46,47,48,49,50,51,0,1,2,3,4,5,6,7,8,9,10,11,12,13,14,15,16,17,18,19,20,21,22,23,24,25,26,27,28,29,30,31,32,33,34,35,36,37,38,39,40,41,42,43,44,45,46,47,48,49,50,51,0,1,2,3,4,5,6,7,8,9,10,11,12,13,14,15,16,17,18,19,20,21,22,23,24,25,26,27,28,29,30,31,32,33,34,35,36,37,38,39,40,41,42,43,44,45,46,47,48,49,50,51,0,1,2,3,4,5,6,7,8,9,10,11,12,13,14,15,16,17,18,19,20,21,22,23,24,25,26,27,28,29,30,31,32,33,34,35,36,37,38,39,40,41,42,43,44,45,46,47,48,49,50,51,0,1,2,3,4,5,6,7,8,9,10,11,12,13,14,15,16,17,18,19,20,21,22,23,24,25,26,27,28,29,30,31,32,33,34,35,36,37,38,39,40,41,42,43,44,45,46,47,48,49,50,51,0,1,2,3,4,5,6,7,8,9,10,11,12,13,14,15,16,17,18,19,20,21,22,23,24,25,26,27,28,29,30,31,32,33,34,35,36,37,38,39,40,41,42,43,44,45,46,47,48,49,50,51,0,1,2,3,4,5,6,7,8,9,10,11,12,13,14,15,16,17,18,19,20,21,22,23,24,25,26,27,28,29,30,31,32,33,34,35,36,37,38,39,40,41,42,43,44,45,46,47,48,49,50,51,0,1,2,3,4,5,6,7,8,9,10,11,12,13,14,15,16,17,18,19,20,21,22,23,24,25,26,27,28,29,30,31,32,33,34,35,36,37,38,39,40,41,42,43,44,45,46,47,48,49,50,51,0,1,2,3,4,5,6,7,8,9,10,11,12,13,14,15,16,17,18,19,20,21,22,23,24,25,26,27,28,29,30,31,32,33,34,35,36,37,38,39,40,41,42,43,44,45,46,47,48,49,50,51,0,1,2,3,4,5,6,7,8,9,10,11,12,13,14,15,16,17,18,19,20,21,22,23,24,25,26,27,28,29,30,31,32,33,34,35,36,37,38,39,40,41,42,43,44,45,46,47,48,49,50,51,0,1,2,3,4,5,6,7,8,9,10,11,12,13,14,15,16,17,18,19,20,21,22,23,24,25,26,27,28,29,30,31,32,33,34,35,36,37,38,39,40,41,42,43,44,45,46,47,48,49,50,51,0,1,2,3,4,5,6,7,8,9,10,11,12,13,14,15,16,17,18,19,20,21,22,23,24,25,26,27,28,29,30,31,32,33,34,35,36,37,38,39,40,41,42,43,44,45,46,47,48,49,50,51,0,1,2,3,4,5,6,7,8,9,10,11,12,13,14,15,16,17,18,19,20,21,22,23,24,25,26,27,28,29,30,31,32,33,34,35,36,37,38,39,40,41,42,43,44,45,46,47,48,49,50,51,0,1,2,3,4,5,6,7,8,9,10,11,12,13,14,15,16,17,18,19,20,21,22,23,24,25,26,27,28,29,30,31,32,33,34,35,36,37,38,39,40,41,42,43,44,45,46,47,48,49,50,51,0,1,2,3,4,5,6,7,8,9,10,11,12,13,14,15,16,17,18,19,20,21,22,23,24,25,26,27,28,29,30,31,32,33,34,35,36,37,38,39,40,41,42,43,44,45,46,47,48,49,50,51,0,1,2,3,4,5,6,7,8,9,10,11,12,13,14,15,16,17,18,19,20,21,22,23,24,25,26,27,28,29,30,31,32,33,34,35,36,37,38,39,40,41,42,43,44,45,46,47,48,49,50,51,0,1,2,3,4,5,6,7,8,9,10,11,12,13,14,15,16,17,18,19,20,21,22,23,24,25,26,27,28,29,30,31,32,33,34,35,36,37,38,39,40,41,42,43,44,45,46,47,48,49,50,51,0,1,2,3,4,5,6,7,8,9,10,11,12,13,14,15,16,17,18,19,20,21,22,23,24,25,26,27,28,29,30,31,32,33,34,35,36,37,38,39,40,41,42,43,44,45,46,47,48,49,50,51,0,1,2,3,4,5,6,7,8,9,10,11,12,13,14,15,16,17,18,19,20,21,22,23,24,25,26,27,28,29,30,31,32,33,34,35,36,37,38,39,40,41,42,43,44,45,46,47,48,49,50,51,0,1,2,3,4,5,6,7,8,9,10,11,12,13,14,15,16,17,18,19,20,21,22,23,24,25,26,27,28,29,30,31,32,33,34,35,36,37,38,39,40,41,42,43,44,45,46,47,48,49,50,51,0,1,2,3,4,5,6,7,8,9,10,11,12,13,14,15,16,17,18,19,20,21,22,23,24,25,26,27,28,29,30,31,32,33,34,35,36,37,38,39,40,41,42,43,44,45,46,47,48,49,50,51,0,1,2,3,4,5,6,7,8,9,10,11,12,13,14,15,16,17,18,19,20,21,22,23,24,25,26,27,28,29,30,31,32,33,34,35,36,37,38,39,40,41,42,43,44,45,46,47,48,49,50,51,0,1,2,3,4,5,6,7,8,9,10,11,12,13,14,15,16,17,18,19,20,21,22,23,24,25,26,27,28,29,30,31,32,33,34,35,36,37,38,39,40,41,42,43,44,45,46,47,48,49,50,51,0,1,2,3,4,5,6,7,8,9,10,11,12,13,14,15,16,17,18,19,20,21,22,23,24,25,26,27,28,29,30,31,32,33,34,35,36,37,38,39,40,41,42,43,44,45,46,47,48,49,50,51,0,1,2,3,4,5,6,7,8,9,10,11,12,13,14,15,16,17,18,19,20,21,22,23,24,25,26,27,28,29,30,31,32,33,34,35,36,37,38,39,40,41,42,43,44,45,46,47,48,49,50,51,0,1,2,3,4,5,6,7,8,9,10,11,12,13,14,15,16,17,18,19,20,21,22,23,24,25,26,27,28,29,30,31,32,33,34,35,36,37,38,39,40,41,42,43,44,45,46,47,48,49,50,51,0,1,2,3,4,5,6,7,8,9,10,11,12,13,14,15,16,17,18,19,20,21,22,23,24,25,26,27,28,29,30,31,32,33,34,35,36,37,38,39,40,41,42,43,44,45,46,47,48,49,50,51,0,1,2,3,4,5,6,7,8,9,10,11,12,13,14,15,16,17,18,19,20,21,22,23,24,25,26,27,28,29,30,31,32,33,34,35,36,37,38,39,40,41,42,43,44,45,46,47,48,49,50,51,0,1,2,3,4,5,6,7,8,9,10,11,12,13,14,15,16,17,18,19,20,21,22,23,24,25,26,27,28,29,30,31,32,33,34,35,36,37,38,39,40,41,42,43,44,45,46,47,48,49,50,51,0,1,2,3,4,5,6,7,8,9,10,11,12,13,14,15,16,17,18,19,20,21,22,23,24,25,26,27,28,29,30,31,32,33,34,35,36,37,38,39,40,41,42,43,44,45,46,47,48,49,50,51,0,1,2,3,4,5,6,7,8,9,10,11,12,13,14,15,16,17,18,19,20,21,22,23,24,25,26,27,28,29,30,31,32,33,34,35,36,37,38,39,40,41,42,43,44,45,46,47,48,49,50,51,0,1,2,3,4,5,6,7,8,9,10,11,12,13,14,15,16,17,18,19,20,21,22,23,24,25,26,27,28,29,30,31,32,33,34,35,36,37,38,39,40,41,42,43,44,45,46,47,48,49,50,51,0,1,2,3,4,5,6,7,8,9,10,11,12,13,14,15,16,17,18,19,20,21,22,23,24,25,26,27,28,29,30,31,32,33,34,35,36,37,38,39,40,41,42,43,44,45,46,47,48,49,50,51,0,1,2,3,4,5,6,7,8,9,10,11,12,13,14,15,16,17,18,19,20,21,22,23,24,25,26,27,28,29,30,31,32,33,34,35,36,37,38,39,40,41,42,43,44,45,46,47,48,49,50,51,0,1,2,3,4,5,6,7,8,9,10,11,12,13,14,15,16,17,18,19,20,21,22,23,24,25,26,27,28,29,30,31,32,33,34,35,36,37,38,39,40,41,42,43,44,45,46,47,48,49,50,51,0,1,2,3,4,5,6,7,8,9,10,11,12,13,14,15,16,17,18,19,20,21,22,23,24,25,26,27,28,29,30,31,32,33,34,35,36,37,38,39,40,41,42,43,44,45,46,47,48,49,50,51,0,1,2,3,4,5,6,7,8,9,10,11,12,13,14,15,16,17,18,19,20,21,22,23,24,25,26,27,28,29,30,31,32,33,34,35,36,37,38,39,40,41,42,43,44,45,46,47,48,49,50,51,0,1,2,3,4,5,6,7,8,9,10,11,12,13,14,15,16,17,18,19,20,21,22,23,24,25,26,27,28,29,30,31,32,33,34,35,36,37,38,39,40,41,42,43,44,45,46,47,48,49,50,51,0,1,2,3,4,5,6,7,8,9,10,11,12,13,14,15,16,17,18,19,20,21,22,23,24,25,26,27,28,29,30,31,32,33,34,35,36,37,38,39,40,41,42,43,44,45,46,47,48,49,50,51,0,1,2,3,4,5,6,7,8,9,10,11,12,13,14,15,16,17,18,19,20,21,22,23,24,25,26,27,28,29,30,31,32,33,34,35,36,37,38,39,40,41,42,43,44,45,46,47,48,49,50,51,0,1,2,3,4,5,6,7,8,9,10,11,12,13,14,15,16,17,18,19,20,21,22,23,24,25,26,27,28,29,30,31,32,33,34,35,36,37,38,39,40,41,42,43,44,45,46,47,48,49,50,51,0,1,2,3,4,5,6,7,8,9,10,11,12,13,14,15,16,17,18,19,20,21,22,23,24,25,26,27,28,29,30,31,32,33,34,35,36,37,38,39,40,41,42,43,44,45,46,47,48,49,50,51,0,1,2,3,4,5,6,7,8,9,10,11,12,13,14,15,16,17,18,19,20,21,22,23,24,25,26,27,28,29,30,31,32,33,34,35,36,37,38,39,40,41,42,43,44,45,46,47,48,49,50,51,0,1,2,3,4,5,6,7,8,9,10,11,12,13,14,15,16,17,18,19,20,21,22,23,24,25,26,27,28,29,30,31,32,33,34,35,36,37,38,39,40,41,42,43,44,45,46,47,48,49,50,51,0,1,2,3,4,5,6,7,8,9,10,11,12,13,14,15,16,17,18,19,20,21,22,23,24,25,26,27,28,29,30,31,32,33,34,35,36,37,38,39,40,41,42,43,44,45,46,47,48,49,50,51,0,1,2,3,4,5,6,7,8,9,10,11,12,13,14,15,16,17,18,19,20,21,22,23,24,25,26,27,28,29,30,31,32,33,34,35,36,37,38,39,40,41,42,43,44,45,46,47,48,49,50,51,0,1,2,3,4,5,6,7,8,9,10,11,12,13,14,15,16,17,18,19,20,21,22,23,24,25,26,27,28,29,30,31,32,33,34,35,36,37,38,39,40,41,42,43,44,45,46,47,48,49,50,51,0,1,2,3,4,5,6,7,8,9,10,11,12,13,14,15,16,17,18,19,20,21,22,23,24,25,26,27,28,29,30,31,32,33,34,35,36,37,38,39,40,41,42,43,44,45,46,47,48,49,50,51,0,1,2,3,4,5,6,7,8,9,10,11,12,13,14,15,16,17,18,19,20,21,22,23,24,25,26,27,28,29,30,31,32,33,34,35,36,37,38,39,40,41,42,43,44,45,46,47,48,49,50,51,0,1,2,3,4,5,6,7,8,9,10,11,12,13,14,15,16,17,18,19,20,21,22,23,24,25,26,27,28,29,30,31,32,33,34,35,36,37,38,39,40,41,42,43,44,45,46,47,48,49,50,51,0,1,2,3,4,5,6,7,8,9,10,11,12,13,14,15,16,17,18,19,20,21,22,23,24,25,26,27,28,29,30,31,32,33,34,35,36,37,38,39,40,41,42,43,44,45,46,47,48,49,50,51,0,1,2,3,4,5,6,7,8,9,10,11,12,13,14,15,16,17,18,19,20,21,22,23,24,25,26,27,28,29,30,31,32,33,34,35,36,37,38,39,40,41,42,43,44,45,46,47,48,49,50,51,0,1,2,3,4,5,6,7,8,9,10,11,12,13,14,15,16,17,18,19,20,21,22,23,24,25,26,27,28,29,30,31,32,33,34,35,36,37,38,39,40,41,42,43,44,45,46,47,48,49,50,51,0,1,2,3,4,5,6,7,8,9,10,11,12,13,14,15,16,17,18,19,20,21,22,23,24,25,26,27,28,29,30,31,32,33,34,35,36,37,38,39,40,41,42,43,44,45,46,47,48,49,50,51,0,1,2,3,4,5,6,7,8,9,10,11,12,13,14,15,16,17,18,19,20,21,22,23,24,25,26,27,28,29,30,31,32,33,34,35,36,37,38,39,40,41,42,43,44,45,46,47,48,49,50,51,0,1,2,3,4,5,6,7,8,9,10,11,12,13,14,15,16,17,18,19,20,21,22,23,24,25,26,27,28,29,30,31,32,33,34,35,36,37,38,39,40,41,42,43,44,45,46,47,48,49,50,51,0,1,2,3,4,5,6,7,8,9,10,11,12,13,14,15,16,17,18,19,20,21,22,23,24,25,26,27,28,29,30,31,32,33,34,35,36,37,38,39,40,41,42,43,44,45,46,47,48,49,50,51,0,1,2,3,4,5,6,7,8,9,10,11,12,13,14,15,16,17,18,19,20,21,22,23,24,25,26,27,28,29,30,31,32,33,34,35,36,37,38,39,40,41,42,43,44,45,46,47,48,49,50,51,0,1,2,3,4,5,6,7,8,9,10,11,12,13,14,15,16,17,18,19,20,21,22,23,24,25,26,27,28,29,30,31,32,33,34,35,36,37,38,39,40,41,42,43,44,45,46,47,48,49,50,51,0,1,2,3,4,5,6,7,8,9,10,11,12,13,14,15,16,17,18,19,20,21,22,23,24,25,26,27,28,29,30,31,32,33,34,35,36,37,38,39,40,41,42,43,44,45,46,47,48,49,50,51,0,1,2,3,4,5,6,7,8,9,10,11,12,13,14,15,16,17,18,19,20,21,22,23,24,25,26,27,28,29,30,31,32,33,34,35,36,37,38,39,40,41,42,43,44,45,46,47,48,49,50,51,0,1,2,3,4,5,6,7,8,9,10,11,12,13,14,15,16,17,18,19,20,21,22,23,24,25,26,27,28,29,30,31,32,33,34,35,36,37,38,39,40,41,42,43,44,45,46,47,48,49,50,51,0,1,2,3,4,5,6,7,8,9,10,11,12,13,14,15,16,17,18,19,20,21,22,23,24,25,26,27,28,29,30,31,32,33,34,35,36,37,38,39,40,41,42,43,44,45,46,47,48,49,50,51,0,1,2,3,4,5,6,7,8,9,10,11,12,13,14,15,16,17,18,19,20,21,22,23,24,25,26,27,28,29,30,31,32,33,34,35,36,37,38,39,40,41,42,43,44,45,46,47,48,49,50,51,0,1,2,3,4,5,6,7,8,9,10,11,12,13,14,15,16,17,18,19,20,21,22,23,24,25,26,27,28,29,30,31,32,33,34,35,36,37,38,39,40,41,42,43,44,45,46,47,48,49,50,51,0,1,2,3,4,5,6,7,8,9,10,11,12,13,14,15,16,17,18,19,20,21,22,23,24,25,26,27,28,29,30,31,32,33,34,35,36,37,38,39,40,41,42,43,44,45,46,47,48,49,50,51,0,1,2,3,4,5,6,7,8,9,10,11,12,13,14,15,16,17,18,19,20,21,22,23,24,25,26,27,28,29,30,31,32,33,34,35,36,37,38,39,40,41,42,43,44,45,46,47,48,49,50,51,0,1,2,3,4,5,6,7,8,9,10,11,12,13,14,15,16,17,18,19,20,21,22,23,24,25,26,27,28,29,30,31,32,33,34,35,36,37,38,39,40,41,42,43,44,45,46,47,48,49,50,51,0,1,2,3,4,5,6,7,8,9,10,11,12,13,14,15,16,17,18,19,20,21,22,23,24,25,26,27,28,29,30,31,32,33,34,35,36,37,38,39,40,41,42,43,44,45,46,47,48,49,50,51,0,1,2,3,4,5,6,7,8,9,10,11,12,13,14,15,16,17,18,19,20,21,22,23,24,25,26,27,28,29,30,31,32,33,34,35,36,37,38,39,40,41,42,43,44,45,46,47,48,49,50,51,0,1,2,3,4,5,6,7,8,9,10,11,12,13,14,15,16,17,18,19,20,21,22,23,24,25,26,27,28,29,30,31,32,33,34,35,36,37,38,39,40,41,42,43,44,45,46,47,48,49,50,51,0,1,2,3,4,5,6,7,8,9,10,11,12,13,14,15,16,17,18,19,20,21,22,23,24,25,26,27,28,29,30,31,32,33,34,35,36,37,38,39,40,41,42,43,44,45,46,47,48,49,50,51,0,1,2,3,4,5,6,7,8,9,10,11,12,13,14,15,16,17,18,19,20,21,22,23,24,25,26,27,28,29,30,31,32,33,34,35,36,37,38,39,40,41,42,43,44,45,46,47,48,49,50,51,0,1,2,3,4,5,6,7,8,9,10,11,12,13,14,15,16,17,18,19,20,21,22,23,24,25,26,27,28,29,30,31,32,33,34,35,36,37,38,39,40,41,42,43,44,45,46,47,48,49,50,51,0,1,2,3,4,5,6,7,8,9,10,11,12,13,14,15,16,17,18,19,20,21,22,23,24,25,26,27,28,29,30,31,32,33,34,35,36,37,38,39,40,41,42,43,44,45,46,47,48,49,50,51,0,1,2,3,4,5,6,7,8,9,10,11,12,13,14,15,16,17,18,19,20,21,22,23,24,25,26,27,28,29,30,31,32,33,34,35,36,37,38,39,40,41,42,43,44,45,46,47,48,49,50,51,0,1,2,3,4,5,6,7,8,9,10,11,12,13,14,15,16,17,18,19,20,21,22,23,24,25,26,27,28,29,30,31,32,33,34,35,36,37,38,39,40,41,42,43,44,45,46,47,48,49,50,51,0,1,2,3,4,5,6,7,8,9,10,11,12,13,14,15,16,17,18,19,20,21,22,23,24,25,26,27,28,29,30,31,32,33,34,35,36,37,38,39,40,41,42,43,44,45,46,47,48,49,50,51,0,1,2,3,4,5,6,7,8,9,10,11,12,13,14,15,16,17,18,19,20,21,22,23,24,25,26,27,28,29,30,31,32,33,34,35,36,37,38,39,40,41,42,43,44,45,46,47,48,49,50,51,0,1,2,3,4,5,6,7,8,9,10,11,12,13,14,15,16,17,18,19,20,21,22,23,24,25,26,27,28,29,30,31,32,33,34,35,36,37,38,39,40,41,42,43,44,45,46,47,48,49,50,51,0,1,2,3,4,5,6,7,8,9,10,11,12,13,14,15,16,17,18,19,20,21,22,23,24,25,26,27,28,29,30,31,32,33,34,35,36,37,38,39,40,41,42,43,44,45,46,47,48,49,50,51,0,1,2,3,4,5,6,7,8,9,10,11,12,13,14,15,16,17,18,19,20,21,22,23,24,25,26,27,28,29,30,31,32,33,34,35,36,37,38,39,40,41,42,43,44,45,46,47,48,49,50,51,0,1,2,3,4,5,6,7,8,9,10,11,12,13,14,15,16,17,18,19,20,21,22,23,24,25,26,27,28,29,30,31,32,33,34,35,36,37,38,39,40,41,42,43,44,45,46,47,48,49,50,51,0,1,2,3,4,5,6,7,8,9,10,11,12,13,14,15,16,17,18,19,20,21,22,23,24,25,26,27,28,29,30,31,32,33,34,35,36,37,38,39,40,41,42,43,44,45,46,47,48,49,50,51,0,1,2,3,4,5,6,7,8,9,10,11,12,13,14,15,16,17,18,19,20,21,22,23,24,25,26,27,28,29,30,31,32,33,34,35,36,37,38,39,40,41,42,43,44,45,46,47,48,49,50,51,0,1,2,3,4,5,6,7,8,9,10,11,12,13,14,15,16,17,18,19,20,21,22,23,24,25,26,27,28,29,30,31,32,33,34,35,36,37,38,39,40,41,42,43,44,45,46,47,48,49,50,51,0,1,2,3,4,5,6,7,8,9,10,11,12,13,14,15,16,17,18,19,20,21,22,23,24,25,26,27,28,29,30,31,32,33,34,35,36,37,38,39,40,41,42,43,44,45,46,47,48,49,50,51,0,1,2,3,4,5,6,7,8,9,10,11,12,13,14,15,16,17,18,19,20,21,22,23,24,25,26,27,28,29,30,31,32,33,34,35,36,37,38,39,40,41,42,43,44,45,46,47,48,49,50,51,0,1,2,3,4,5,6,7,8,9,10,11,12,13,14,15,16,17,18,19,20,21,22,23,24,25,26,27,28,29,30,31,32,33,34,35,36,37,38,39,40,41,42,43,44,45,46,47,48,49,50,51,0,1,2,3,4,5,6,7,8,9,10,11,12,13,14,15,16,17,18,19,20,21,22,23,24,25,26,27,28,29,30,31,32,33,34,35,36,37,38,39,40,41,42,43,44,45,46,47,48,49,50,51,0,1,2,3,4,5,6,7,8,9,10,11,12,13,14,15,16,17,18,19,20,21,22,23,24,25,26,27,28,29,30,31,32,33,34,35,36,37,38,39,40,41,42,43,44,45,46,47,48,49,50,51,0,1,2,3,4,5,6,7,8,9,10,11,12,13,14,15,16,17,18,19,20,21,22,23,24,25,26,27,28,29,30,31,32,33,34,35,36,37,38,39,40,41,42,43,44,45,46,47,48,49,50,51,0,1,2,3,4,5,6,7,8,9,10,11,12,13,14,15,16,17,18,19,20,21,22,23,24,25,26,27,28,29,30,31,32,33,34,35,36,37,38,39,40,41,42,43,44,45,46,47,48,49,50,51,0,1,2,3,4,5,6,7,8,9,10,11,12,13,14,15,16,17,18,19,20,21,22,23,24,25,26,27,28,29,30,31,32,33,34,35,36,37,38,39,40,41,42,43,44,45,46,47,48,49,50,51,0,1,2,3,4,5,6,7,8,9,10,11,12,13,14,15,16,17,18,19,20,21,22,23,24,25,26,27,28,29,30,31,32,33,34,35,36,37,38,39,40,41,42,43,44,45,46,47,48,49,50,51,0,1,2,3,4,5,6,7,8,9,10,11,12,13,14,15,16,17,18,19,20,21,22,23,24,25,26,27,28,29,30,31,32,33,34,35,36,37,38,39,40,41,42,43,44,45,46,47,48,49,50,51,0,1,2,3,4,5,6,7,8,9,10,11,12,13,14,15,16,17,18,19,20,21,22,23,24,25,26,27,28,29,30,31,32,33,34,35,36,37,38,39,40,41,42,43,44,45,46,47,48,49,50,51,0,1,2,3,4,5,6,7,8,9,10,11,12,13,14,15,16,17,18,19,20,21,22,23,24,25,26,27,28,29,30,31,32,33,34,35,36,37,38,39,40,41,42,43,44,45,46,47,48,49,50,51],"trees":[{"base_weights":[-2.349311E-1,-5.05847E-1,6.1225367E0,7.3360205E-1,-5.089989E-1,-2.5729838E-1,7.5724854E0,2.3818247E-1,-4.0703744E-1,3.8048777E-1,8.657961E0,-3.3544144E-1,1.2290215E0,1.0100988E1,2.1324792E0,1.1363584E1,2.718672E0,2.3351586E-1,3.9473023E0,1.7244412E0,1.2047908E1,4.450749E0,-2.8270182E-1,-2.93601E-1,7.3360205E-1],"categories":[],"categories_nodes":[],"categories_segments":[],"categories_sizes":[],"default_left":[1,0,1,0,0,0,0,0,0,0,1,0,0,1,0,0,1,1,0,0,0,0,0,0,0],"id":0,"left_children":[1,3,5,-1,-1,7,9,-1,-1,11,13,-1,-1,15,17,19,21,23,-1,-1,-1,-1,-1,-1,-1],"loss_changes":[1.1404281E3,2.8512726E0,2.5231915E2,0E0,0E0,5.4056966E-1,1.6912927E2,0E0,0E0,2.8071778E0,1.5873059E2,0E0,0E0,1.12738525E2,1.5394554E1,6.395166E1,1.9791742E1,1.1054392E0,0E0,0E0,0E0,0E0,0E0,0E0,0E0],"parents":[2147483647,0,0,1,1,2,2,5,5,6,6,9,9,10,10,13,13,14,14,15,15,16,16,17,17],"right_children":[2,4,6,-1,-1,8,10,-1,-1,12,14,-1,-1,16,18,20,22,24,-1,-1,-1,-1,-1,-1,-1],"split_conditions":[1.9855324E-2,2.308981E-2,2.3113258E-2,2.2008063E-1,-1.5269966E-1,5.2351326E-2,1.3593492E-1,7.145474E-2,-1.2211124E-1,1.04571484E-1,2.7667431E-2,-1.0063244E-1,3.6870646E-1,3.787733E-2,5.108204E-1,8.251071E-2,1.4036009E-2,1.3959038E-1,1.1841908E0,5.173324E-1,3.6143725E0,1.3352247E0,-8.481055E-2,-8.80803E-2,2.2008063E-1],"split_indices":[3840,4004,19246,0,0,3624,8990,0,0,3840,43285,0,0,9852,3850,30282,33139,5386,0,0,0,0,0,0,0],"split_type":[0,0,0,0,0,0,0,0,0,0,0,0,0,0,0,0,0,0,0,0,0,0,0,0,0],"sum_hessian":[6.59341E2,6.3327515E2,2.6065828E1,1.0184911E0,6.3225665E2,4.97929E0,2.1086538E1,1.0184911E0,3.960799E0,2.9423077E0,1.8144232E1,1.9238167E0,1.0184911E0,1.4409763E1,3.7344675E0,1.1844675E1,2.5650887E0,2.3764794E0,1.3579882E0,1.0184911E0,1.0826183E1,1.3202664E0,1.2448225E0,1.3579882E0,1.0184911E0],"tree_param":{"num_deleted":"0","num_feature":"51653","num_nodes":"25","size_leaf_vector":"0"}},{"base_weights":[-2.0464371E-1,-4.9969387E-1,1.0696286E1,2.5440664E0,-5.090108E-1,-4.5266125E-1,2.001584E1],"categories":[],"categories_nodes":[],"categories_segments":[],"categories_sizes":[],"default_left":[1,0,1,0,0,0,0],"id":1,"left_children":[1,3,5,-1,-1,-1,-1],"loss_changes":[2.1292134E3,1.9554764E1,1.8218334E3,0E0,0E0,0E0,0E0],"parents":[2147483647,0,0,1,1,2,2],"right_children":[2,4,6,-1,-1,-1,-1],"split_conditions":[3.137683E-2,2.9587092E-2,2.1346007E-2,7.6321995E-1,-1.5270324E-1,-1.3579838E-1,6.0047526E0],"split_indices":[18000,18000,30914,0,0,0,0],"split_type":[0,0,0,0,0,0,0],"sum_hessian":[6.59341E2,6.428942E2,1.6446747E1,1.1316569E0,6.417626E2,7.921598E0,8.525148E0],"tree_param":{"num_deleted":"0","num_feature":"51653","num_nodes":"7","size_leaf_vector":"0"}},{"base_weights":[-4.545146E-1,-5.075095E-1,1.0247367E1,2.3818247E-1,-5.09028E-1,3.2106998E0,1.1980557E1],"categories":[],"categories_nodes":[],"categories_segments":[],"categories_sizes":[],"default_left":[1,0,0,0,0,0,0],"id":2,"left_children":[1,3,5,-1,-1,-1,-1],"loss_changes":[3.7970996E2,8.6634827E-1,1.7930603E0,0E0,0E0,0E0,0E0],"parents":[2147483647,0,0,1,1,2,2],"right_children":[2,4,6,-1,-1,-1,-1],"split_conditions":[4.8433367E-2,9.836897E-2,2.1294918E-2,7.145474E-2,-1.5270841E-1,9.6321E-1,3.5941675E0],"split_indices":[4714,878,26569,0,0,0,0],"split_type":[0,0,0,0,0,0,0],"sum_hessian":[6.59341E2,6.5704E2,2.3010356E0,1.0184911E0,6.560215E2,1.0184911E0,1.2825444E0],"tree_param":{"num_deleted":"0","num_feature":"51653","num_nodes":"7","size_leaf_vector":"0"}},{"base_weights":[-4.8025888E-1,4.2130704E0,-5.090282E-1,-1.266441E-2,8.329919E0,-2.5723708E-1,2.3818247E-1],"categories":[],"categories_nodes":[],"categories_segments":[],"categories_sizes":[],"default_left":[0,0,0,0,0,0,0],"id":3,"left_children":[1,3,-1,5,-1,-1,-1],"loss_changes":[9.130644E1,7.196985E1,0E0,2.4758908E-1,0E0,0E0,0E0],"parents":[2147483647,0,0,1,1,3,3],"right_children":[2,4,-1,6,-1,-1,-1],"split_conditions":[3.49192E-1,4.438231E-1,-1.5270847E-1,1.7028507E-2,2.4989758E0,-7.7171125E-2,7.145474E-2],"split_indices":[20393,41825,0,3665,0,0,0],"split_type":[0,0,0,0,0,0,0],"sum_hessian":[6.59341E2,3.1309173E0,6.562101E2,2.0369823E0,1.0939349E0,1.0184911E0,1.0184911E0],"tree_param":{"num_deleted":"0","num_feature":"51653","num_nodes":"7","size_leaf_vector":"0"}},{"base_weights":[-4.302847E-1,-5.074988E-1,7.59367E0,2.3818247E-1,-5.090244E-1,1.17358885E1,-3.4796903E-1,3.7989275E0,1.3663625E1],"categories":[],"categories_nodes":[],"categories_segments":[],"categories_sizes":[],"default_left":[1,0,0,0,0,0,0,0,0],"id":4,"left_children":[1,3,5,-1,-1,7,-1,-1,-1],"loss_changes":[4.1297632E2,8.66333E-1,2.1318753E2,0E0,0E0,1.245166E1,0E0,0E0,0E0],"parents":[2147483647,0,0,1,1,2,2,5,5],"right_children":[2,4,6,-1,-1,8,-1,-1,-1],"split_conditions":[4.8762124E-2,5.717303E-2,7.2210544E-1,7.145474E-2,-1.5270732E-1,6.476299E-2,-1.0439071E-1,1.1396784E0,4.0990877E0],"split_indices":[24853,4155,6152,0,0,41825,0,0,0],"split_type":[0,0,0,0,0,0,0,0,0],"sum_hessian":[6.59341E2,6.539845E2,5.356509E0,1.0184911E0,6.52966E2,3.206361E0,2.150148E0,1.2071006E0,1.9992604E0],"tree_param":{"num_deleted":"0","num_feature":"51653","num_nodes":"9","size_leaf_vector":"0"}},{"base_weights":[6.945709E-2,2.4312757E1,-5.0901467E-1],"categories":[],"categories_nodes":[],"categories_segments":[],"categories_sizes":[],"default_left":[0,0,0],"id":5,"left_children":[1,-1,-1],"loss_changes":[9.273041E3,0E0,0E0],"parents":[2147483647,0,0],"right_children":[2,-1,-1],"split_conditions":[3.6564726E-1,7.2938275E0,-1.527044E-1],"split_indices":[5383,0,0],"split_type":[0,0,0],"sum_hessian":[6.59341E2,1.4409763E1,6.449312E2],"tree_param":{"num_deleted":"0","num_feature":"51653","num_nodes":"3","size_leaf_vector":"0"}},{"base_weights":[-4.7117266E-1,5.6655326E0,-5.090282E-1,1.0666234E1,-3.3082318E-1],"categories":[],"categories_nodes":[],"categories_segments":[],"categories_sizes":[],"default_left":[0,0,0,0,0],"id":6,"left_children":[1,3,-1,-1,-1],"loss_changes":[1.5628664E2,1.27398254E2,0E0,0E0,0E0],"parents":[2147483647,0,0,1,1],"right_children":[2,4,-1,-1,-1],"split_conditions":[2.027328E-1,7.6049316E-1,-1.5270847E-1,3.1998703E0,-9.924696E-2],"split_indices":[4550,7133,0,0,0],"split_type":[0,0,0,0,0],"sum_hessian":[6.59341E2,3.1309173E0,6.562101E2,1.2825444E0,1.8483728E0],"tree_param":{"num_deleted":"0","num_feature":"51653","num_nodes":"5","size_leaf_vector":"0"}},{"base_weights":[1.0113946E0,1.7638084E1,-5.023646E-1,-4.7796768E-1,2.4429615E1,-5.089611E-1,1.4027603E0,2.5002533E1,1.2290215E0],"categories":[],"categories_nodes":[],"categories_segments":[],"categories_sizes":[],"default_left":[0,1,1,0,0,0,0,0,0],"id":7,"left_children":[1,3,5,-1,7,-1,-1,-1,-1],"loss_changes":[1.6628855E4,6.794752E3,8.33226E0,0E0,5.0251562E2,0E0,0E0,0E0,0E0],"parents":[2147483647,0,0,1,1,2,2,4,4],"right_children":[2,4,6,-1,8,-1,-1,-1,-1],"split_conditions":[1.9415E-1,1.6294383E-2,1.166427E-1,-1.4339031E-1,3.632868E-1,-1.5268832E-1,4.208281E-1,7.50076E0,3.6870646E-1],"split_indices":[10176,25505,9475,0,9475,0,0,0,0],"split_type":[0,0,0,0,0,0,0,0,0],"sum_hessian":[6.59341E2,5.413092E1,6.052101E2,1.5013314E1,3.9117603E1,6.038521E2,1.3579882E0,3.8099113E1,1.0184911E0],"tree_param":{"num_deleted":"0","num_feature":"51653","num_nodes":"9","size_leaf_vector":"0"}},{"base_weights":[9.901935E-1,2.4246887E1,-5.057651E-1,2.4586498E1,5.6877975E0,-5.089817E-1,5.378203E-1],"categories":[],"categories_nodes":[],"categories_segments":[],"categories_sizes":[],"default_left":[0,1,0,0,0,0,0],"id":8,"left_children":[1,3,5,-1,-1,-1,-1],"loss_changes":[2.2986219E4,1.11828125E2,2.3597107E0,0E0,0E0,0E0,0E0],"parents":[2147483647,0,0,1,1,2,2],"right_children":[2,4,6,-1,-1,-1,-1],"split_conditions":[6.520952E-1,2.3992908E-1,3.1603366E-1,7.37595E0,1.7063394E0,-1.5269452E-1,1.613461E-1],"split_indices":[8990,24651,9581,0,0,0,0],"split_type":[0,0,0,0,0,0,0],"sum_hessian":[6.59341E2,3.8928997E1,6.20412E2,3.7910503E1,1.0184911E0,6.190163E2,1.3957101E0],"tree_param":{"num_deleted":"0","num_feature":"51653","num_nodes":"7","size_leaf_vector":"0"}},{"base_weights":[-4.8328763E-1,-5.0903046E-1,7.29028E0],"categories":[],"categories_nodes":[],"categories_segments":[],"categories_sizes":[],"default_left":[1,0,0],"id":9,"left_children":[1,-1,-1],"loss_changes":[1.3585414E2,0E0,0E0],"parents":[2147483647,0,0],"right_children":[2,-1,-1],"split_conditions":[7.799201E-2,-1.5270914E-1,2.187084E0],"split_indices":[50070,0,0],"split_type":[0,0,0],"sum_hessian":[6.59341E2,6.580962E2,1.2448225E0],"tree_param":{"num_deleted":"0","num_feature":"51653","num_nodes":"3","size_leaf_vector":"0"}},{"base_weights":[-3.9999732E-1,-5.090281E-1,1.6575113E1],"categories":[],"categories_nodes":[],"categories_segments":[],"categories_sizes":[],"default_left":[1,0,0],"id":10,"left_children":[1,-1,-1],"loss_changes":[1.2306023E3,0E0,0E0],"parents":[2147483647,0,0],"right_children":[2,-1,-1],"split_conditions":[3.1988308E-2,-1.5270843E-1,4.972534E0],"split_indices":[40423,0,0],"split_type":[0,0,0],"sum_hessian":[6.59341E2,6.560969E2,3.244083E0],"tree_param":{"num_deleted":"0","num_feature":"51653","num_nodes":"3","size_leaf_vector":"0"}},{"base_weights":[3.4626607E-2,2.3703665E1,-5.074687E-1,-5.090142E-1,2.3818247E-1],"categories":[],"categories_nodes":[],"categories_segments":[],"categories_sizes":[],"default_left":[0,0,1,0,0],"id":11,"left_children":[1,-1,3,-1,-1],"loss_changes":[8.484782E3,0E0,8.663025E-1,0E0,0E0],"parents":[2147483647,0,0,2,2],"right_children":[2,-1,4,-1,-1],"split_conditions":[3.3550066E-1,7.1110997E0,1.9892067E-1,-1.5270427E-1,7.145474E-2],"split_indices":[29879,0,14561,0,0],"split_type":[0,0,0,0,0],"sum_hessian":[6.59341E2,1.3806213E1,6.455348E2,6.445163E2,1.0184911E0],"tree_param":{"num_deleted":"0","num_feature":"51653","num_nodes":"5","size_leaf_vector":"0"}},{"base_weights":[-3.2125014E-1,-5.0902504E-1,1.7775797E1,2.142053E1,-2.7064538E-1],"categories":[],"categories_nodes":[],"categories_segments":[],"categories_sizes":[],"default_left":[1,0,0,0,0],"id":12,"left_children":[1,-1,3,-1,-1],"loss_changes":[2.2530005E3,0E0,4.5366724E2,0E0,0E0],"parents":[2147483647,0,0,2,2],"right_children":[2,-1,4,-1,-1],"split_conditions":[2.1650774E-2,-1.5270752E-1,5.5482703E-1,6.4261594E0,-8.119362E-2],"split_indices":[16112,0,5894,0,0],"split_type":[0,0,0,0,0],"sum_hessian":[6.59341E2,6.535318E2,5.8091717E0,4.677515E0,1.1316569E0],"tree_param":{"num_deleted":"0","num_feature":"51653","num_nodes":"5","size_leaf_vector":"0"}},{"base_weights":[-3.8182488E-1,1.5434551E1,-5.090268E-1,1.8993608E1,2.3818247E-1],"categories":[],"categories_nodes":[],"categories_segments":[],"categories_sizes":[],"default_left":[0,0,0,0,0],"id":13,"left_children":[1,3,-1,-1,-1],"loss_changes":[1.3363794E3,2.821411E2,0E0,0E0,0E0],"parents":[2147483647,0,0,1,1],"right_children":[2,4,-1,-1,-1],"split_conditions":[1.4534984E0,3.9692056E-1,-1.5270805E-1,5.698083E0,7.145474E-2],"split_indices":[20039,12895,0,0,0],"split_type":[0,0,0,0,0],"sum_hessian":[6.59341E2,4.300296E0,6.550407E2,3.2818048E0,1.0184911E0],"tree_param":{"num_deleted":"0","num_feature":"51653","num_nodes":"5","size_leaf_vector":"0"}},{"base_weights":[9.8716474E-1,2.2793861E1,-5.089802E-1,2.3476435E1,-2.788204E-1,5.7665367E0,2.3986933E1],"categories":[],"categories_nodes":[],"categories_segments":[],"categories_sizes":[],"default_left":[0,0,0,0,0,0,0],"id":14,"left_children":[1,3,-1,5,-1,-1,-1],"loss_changes":[2.1555873E4,6.745879E2,0E0,2.3426758E2,0E0,0E0,0E0],"parents":[2147483647,0,0,1,1,3,3],"right_children":[2,4,-1,6,-1,-1,-1],"split_conditions":[8.675952E-1,4.3071038E-1,-1.5269408E-1,1.7866269E-2,-8.364612E-2,1.729961E0,7.19608E0],"split_indices":[45898,47485,0,16497,0,0,0],"split_type":[0,0,0,0,0,0,0],"sum_hessian":[6.59341E2,4.141864E1,6.1792236E2,4.021154E1,1.2071006E0,1.4711539E0,3.8740387E1],"tree_param":{"num_deleted":"0","num_feature":"51653","num_nodes":"7","size_leaf_vector":"0"}},{"base_weights":[-3.9393985E-1,1.9276205E1,-5.0902855E-1],"categories":[],"categories_nodes":[],"categories_segments":[],"categories_sizes":[],"default_left":[0,0,0],"id":15,"left_children":[1,-1,-1],"loss_changes":[1.5046993E3,0E0,0E0],"parents":[2147483647,0,0],"right_children":[2,-1,-1],"split_conditions":[4.6387357E-1,5.7828617E0,-1.5270858E-1],"split_indices":[45299,0,0],"split_type":[0,0,0],"sum_hessian":[6.59341E2,2.866864E0,6.564741E2],"tree_param":{"num_deleted":"0","num_feature":"51653","num_nodes":"3","size_leaf_vector":"0"}},{"base_weights":[-4.6662956E-1,-5.029466E-1,6.1536293E0,9.5694005E-1,-5.090263E-1,9.072158E0,9.325228E-1,-2.618705E-1,1.7244412E0],"categories":[],"categories_nodes":[],"categories_segments":[],"categories_sizes":[],"default_left":[1,0,1,0,0,0,0,0,0],"id":16,"left_children":[1,3,5,7,-1,-1,-1,-1,-1],"loss_changes":[1.6185957E2,6.3243103E0,4.758905E1,3.3277767E0,0E0,0E0,0E0,0E0,0E0],"parents":[2147483647,0,0,1,1,2,2,3,3],"right_children":[2,4,6,8,-1,-1,-1,-1,-1],"split_conditions":[9.052583E-2,6.829333E-2,1.8460253E-2,4.4601195E-2,-1.5270789E-1,2.7216475E0,2.7975684E-1,-7.856116E-2,5.173324E-1],"split_indices":[23662,23662,19713,6702,0,0,0,0,0],"split_type":[0,0,0,0,0,0,0,0,0],"sum_hessian":[6.59341E2,6.566627E2,2.6782546E0,2.0747042E0,6.54588E2,1.2448225E0,1.433432E0,1.056213E0,1.0184911E0],"tree_param":{"num_deleted":"0","num_feature":"51653","num_nodes":"9","size_leaf_vector":"0"}},{"base_weights":[-2.4250294E-1,1.7628801E1,-5.0748706E-1,2.2240843E1,-3.3766234E-1,-5.090204E-1,2.3818247E-1],"categories":[],"categories_nodes":[],"categories_segments":[],"categories_sizes":[],"default_left":[0,0,1,0,0,0,0],"id":17,"left_children":[1,3,5,-1,-1,-1,-1],"loss_changes":[3.1360657E3,8.092864E2,8.663025E-1,0E0,0E0,0E0,0E0],"parents":[2147483647,0,0,1,1,2,2],"right_children":[2,4,6,-1,-1,-1,-1],"split_conditions":[7.491465E-1,1.0090804E0,1.9892067E-1,6.672253E0,-1.01298705E-1,-1.5270612E-1,7.145474E-2],"split_indices":[19689,19586,14561,0,0,0,0],"split_type":[0,0,0,0,0,0,0],"sum_hessian":[6.59341E2,8.676036E0,6.50665E2,6.714497E0,1.9615386E0,6.496465E2,1.0184911E0],"tree_param":{"num_deleted":"0","num_feature":"51653","num_nodes":"7","size_leaf_vector":"0"}},{"base_weights":[-4.6814394E-1,-5.02958E-1,8.587293E0,-5.0902337E-1,1.7137747E-1,1.2290215E0,-2.4029575E-1,2.3818247E-1,-3.9857996E-1],"categories":[],"categories_nodes":[],"categories_segments":[],"categories_sizes":[],"default_left":[1,1,0,0,0,0,0,0,0],"id":18,"left_children":[1,3,-1,-1,5,-1,7,-1,-1],"loss_changes":[2.1249586E2,2.781601E0,0E0,0E0,3.1779463E0,0E0,5.192106E-1,0E0,0E0],"parents":[2147483647,0,0,1,1,4,4,6,6],"right_children":[2,4,-1,-1,6,-1,8,-1,-1],"split_conditions":[1.2542272E-1,6.167771E-2,2.5761878E0,-1.5270701E-1,5.207842E-2,3.6870646E-1,8.401835E-2,7.145474E-2,-1.1957399E-1],"split_indices":[18741,18741,0,0,18202,0,0,0,0],"split_type":[0,0,0,0,0,0,0,0,0],"sum_hessian":[6.59341E2,6.5775665E2,1.5843196E0,6.521361E2,5.620562E0,1.0184911E0,4.6020713E0,1.0184911E0,3.58358E0],"tree_param":{"num_deleted":"0","num_feature":"51653","num_nodes":"9","size_leaf_vector":"0"}},{"base_weights":[-4.8783073E-1,-5.014188E-1,1.7309166E0,-5.0597847E-1,1.2290215E0,-3.2341808E-1,3.2806602E0,-5.5674538E-2,-5.0902146E-1,7.3360205E-1,-3.9671862E-1],"categories":[],"categories_nodes":[],"categories_segments":[],"categories_sizes":[],"default_left":[1,1,0,0,0,0,0,0,0,0,0],"id":19,"left_children":[1,3,5,7,-1,-1,-1,9,-1,-1,-1],"loss_changes":[2.0776276E1,5.8064423E0,1.4572877E1,8.706665E-1,0E0,0E0,0E0,1.7786806E0,0E0,0E0,0E0],"parents":[2147483647,0,0,1,1,2,2,3,3,7,7],"right_children":[2,4,6,8,-1,-1,-1,10,-1,-1,-1],"split_conditions":[1.2926725E-1,4.7096793E-2,6.061824E-1,6.5073036E-2,3.6870646E-1,-9.702543E-2,9.841981E-1,1.18222445E-1,-1.5270644E-1,2.2008063E-1,-1.1901559E-1],"split_indices":[19682,11268,39608,19682,0,0,0,13779,0,0,0],"split_type":[0,0,0,0,0,0,0,0,0,0,0],"sum_hessian":[6.59341E2,6.560969E2,3.244083E0,6.550784E2,1.0184911E0,1.7352072E0,1.5088758E0,4.5266275E0,6.505518E2,1.0184911E0,3.5081363E0],"tree_param":{"num_deleted":"0","num_feature":"51653","num_nodes":"11","size_leaf_vector":"0"}},{"base_weights":[-4.8783073E-1,-5.075029E-1,2.0946813E0,2.3818247E-1,-5.0902575E-1,-3.4600762E-1,3.8840508E0,4.6969585E0,1.1971222E0],"categories":[],"categories_nodes":[],"categories_segments":[],"categories_sizes":[],"default_left":[1,0,1,0,0,0,0,0,0],"id":20,"left_children":[1,3,5,-1,-1,-1,7,-1,-1],"loss_changes":[3.461084E1,8.66333E-1,2.399764E1,0E0,0E0,0E0,1.0930023E0,0E0,0E0],"parents":[2147483647,0,0,1,1,2,2,6,6],"right_children":[2,4,6,-1,-1,-1,8,-1,-1],"split_conditions":[8.291146E-2,7.28435E-2,3.500001E-2,7.145474E-2,-1.5270773E-1,-1.03802286E-1,6.8703756E-2,1.4090877E0,3.5913667E-1],"split_indices":[47474,9372,20053,0,0,0,5386,0,0],"split_type":[0,0,0,0,0,0,0,0,0],"sum_hessian":[6.59341E2,6.551539E2,4.1871305E0,1.0184911E0,6.541354E2,2.112426E0,2.0747042E0,1.0184911E0,1.056213E0],"tree_param":{"num_deleted":"0","num_feature":"51653","num_nodes":"9","size_leaf_vector":"0"}},{"base_weights":[-4.7723013E-1,-5.0903064E-1,9.762628E0],"categories":[],"categories_nodes":[],"categories_segments":[],"categories_sizes":[],"default_left":[1,0,0],"id":21,"left_children":[1,-1,-1],"loss_changes":[2.1999785E2,0E0,0E0],"parents":[2147483647,0,0],"right_children":[2,-1,-1],"split_conditions":[5.5810086E-2,-1.527092E-1,2.9287884E0],"split_indices":[25898,0,0],"split_type":[0,0,0],"sum_hessian":[6.59341E2,6.582471E2,1.0939349E0],"tree_param":{"num_deleted":"0","num_feature":"51653","num_nodes":"3","size_leaf_vector":"0"}},{"base_weights":[-4.938882E-1,-5.090299E-1,3.4416018E0],"categories":[],"categories_nodes":[],"categories_segments":[],"categories_sizes":[],"default_left":[1,0,0],"id":22,"left_children":[1,-1,-1],"loss_changes":[4.1101715E1,0E0,0E0],"parents":[2147483647,0,0],"right_children":[2,-1,-1],"split_conditions":[5.0379585E-2,-1.5270898E-1,1.0324806E0],"split_indices":[22127,0,0],"split_type":[0,0,0],"sum_hessian":[6.59341E2,6.576812E2,1.6597633E0],"tree_param":{"num_deleted":"0","num_feature":"51653","num_nodes":"3","size_leaf_vector":"0"}},{"base_weights":[-2.5764662E-1,-4.9782574E-1,4.1292834E0,-5.0898653E-1,1.2596723E0,-4.8598972E-1,1.0903048E1,3.2106998E0,-3.517542E-1,1.5809045E1,3.2785587E0,1.7832907E1,7.3360205E-1,-4.7144167E-2,4.9728656E0,-2.8270182E-1,2.3818247E-1,7.559349E-1,7.4642167E0],"categories":[],"categories_nodes":[],"categories_segments":[],"categories_sizes":[],"default_left":[1,1,1,0,1,0,1,0,0,1,0,0,0,0,0,0,0,0,0],"id":23,"left_children":[1,3,5,-1,7,-1,9,-1,-1,11,13,-1,-1,15,17,-1,-1,-1,-1],"loss_changes":[6.9782324E2,1.293898E1,1.0802341E3,0E0,1.4472507E1,0E0,4.7096375E2,0E0,0E0,2.3840454E2,3.81774E1,0E0,0E0,2.8666475E-1,4.132306E1,0E0,0E0,0E0,0E0],"parents":[2147483647,0,0,1,1,2,2,4,4,6,6,9,9,10,10,13,13,14,14],"right_children":[2,4,6,-1,8,-1,10,-1,-1,12,14,-1,-1,16,18,-1,-1,-1,-1],"split_conditions":[2.9501662E-2,2.1540003E-2,1.8248465E-2,-1.5269597E-1,3.577649E-2,-1.4579692E-1,3.8908247E-2,9.6321E-1,-1.0552626E-1,4.700797E-2,1.1183599E-1,5.349872E0,2.2008063E-1,1.9836726E-2,2.1028362E-2,-8.481055E-2,7.145474E-2,2.2678047E-1,2.2392652E0],"split_indices":[21855,21855,31925,0,43285,0,43285,0,0,9475,41522,0,0,3665,43640,0,0,0,0],"split_type":[0,0,0,0,0,0,0,0,0,0,0,0,0,0,0,0,0,0,0],"sum_hessian":[6.59341E2,6.259571E2,3.3383877E1,6.22713E2,3.244083E0,2.0407545E1,1.2976332E1,1.0184911E0,2.225592E0,7.242604E0,5.733728E0,6.2241125E0,1.0184911E0,2.2633138E0,3.4704144E0,1.2448225E0,1.0184911E0,1.7729291E0,1.6974852E0],"tree_param":{"num_deleted":"0","num_feature":"51653","num_nodes":"19","size_leaf_vector":"0"}},{"base_weights":[1.0657926E1,2.608727E-2,2.191294E1,-3.805182E-1,6.392366E0,2.3790148E1,-4.51332E-1,2.5978272E0,-4.9847022E-1,1.3964699E1,-2.9825437E-1,1.095943E0,2.4219711E1,-4.892494E-1,2.3818247E-1,1.18857116E-1,1.0194837E1,1.2290215E0,-5.0815225E-1,1.640524E1,4.9056602E-1,7.3360205E-1,-4.6279752E-1,4.201539E0,-2.3661672E-1,2.4348871E1,-3.066038E-1,2.0091584E0,-4.516782E-1,1.8608913E1,1.1663723E0,2.3818247E-1,-3.9671862E-1,2.4496769E1,9.585234E0,2.4584267E1,4.220061E0,1.0947368E0,1.487853E1],"categories":[],"categories_nodes":[],"categories_segments":[],"categories_sizes":[],"default_left":[1,1,0,1,0,0,1,1,0,0,0,0,0,0,0,1,0,0,0,1,0,0,0,0,0,1,0,0,0,0,0,0,0,1,0,0,0,0,0],"id":24,"left_children":[1,3,5,7,9,11,13,15,17,19,21,23,25,-1,-1,27,-1,-1,-1,29,-1,-1,-1,-1,31,33,-1,-1,-1,-1,-1,-1,-1,35,37,-1,-1,-1,-1],"loss_changes":[7.901681E4,8.8402594E2,1.3477375E4,1.1408752E2,1.0428816E3,2.8585312E3,7.9161024E-1,2.3216405E2,5.8041077E0,3.0890015E2,2.3538213E0,2.8080418E1,9.2740625E2,0E0,0E0,1.2075224E1,0E0,0E0,0E0,2.512937E2,0E0,0E0,0E0,0E0,5.146049E-1,3.9596875E2,0E0,0E0,0E0,0E0,0E0,0E0,0E0,4.0259375E2,1.8631982E2,0E0,0E0,0E0,0E0],"parents":[2147483647,0,0,1,1,2,2,3,3,4,4,5,5,6,6,7,7,8,8,9,9,10,10,11,11,12,12,15,15,19,19,24,24,25,25,33,33,34,34],"right_children":[2,4,6,8,10,12,14,16,18,20,22,24,26,-1,-1,28,-1,-1,-1,30,-1,-1,-1,-1,32,34,-1,-1,-1,-1,-1,-1,-1,36,38,-1,-1,-1,-1],"split_conditions":[2.6978154E-2,1.9354383E-2,4.438231E-1,5.7624523E-3,8.285817E-3,2.912854E-1,8.186737E-2,1.1167681E-2,5.611573E-2,5.9164524E-2,1.679748E-2,3.770792E-1,6.149461E-1,-1.4677483E-1,7.145474E-2,2.757691E-3,3.0584512E0,3.6870646E-1,-1.5244567E-1,1.9743755E-2,1.4716981E-1,2.2008063E-1,-1.3883926E-1,1.2604618E0,3.741546E-2,4.362606E-2,-9.198114E-2,6.0274756E-1,-1.3550346E-1,5.582674E0,3.499117E-1,7.145474E-2,-1.1901559E-1,3.5967626E-2,1.9262393E-1,7.3752804E0,1.2660183E0,3.2842106E-1,4.463559E0],"split_indices":[43285,43285,41825,40699,15802,8990,5907,43285,7793,41825,3665,5321,25460,0,0,14718,0,0,0,36902,0,0,0,0,3624,19344,0,0,0,0,0,0,0,25402,44504,0,0,0,0],"split_type":[0,0,0,0,0,0,0,0,0,0,0,0,0,0,0,0,0,0,0,0,0,0,0,0,0,0,0,0,0,0,0,0,0,0,0,0,0,0,0],"sum_hessian":[6.59341E2,3.395725E2,3.197685E2,3.2007028E2,1.950222E1,2.949475E2,2.4821007E1,1.1392013E1,3.0867825E2,8.638314E0,1.0863906E1,5.5451183E0,2.8940237E2,2.3802515E1,1.0184911E0,9.35503E0,2.0369823E0,1.0184911E0,3.0765976E2,7.129438E0,1.5088758E0,1.0184911E0,9.845414E0,1.0184911E0,4.5266275E0,2.878935E2,1.5088758E0,1.5843196E0,7.7707105E0,6.0355034E0,1.0939349E0,1.0184911E0,3.5081363E0,2.8438538E2,3.5081363E0,2.8295193E2,1.433432E0,1.810651E0,1.6974852E0],"tree_param":{"num_deleted":"0","num_feature":"51653","num_nodes":"39","size_leaf_vector":"0"}},{"base_weights":[-1.3801147E-1,-5.074786E-1,1.9777231E1,-5.090175E-1,2.3818247E-1,2.2434202E1,-2.9700527E-1],"categories":[],"categories_nodes":[],"categories_segments":[],"categories_sizes":[],"default_left":[1,1,0,0,0,0,0],"id":25,"left_children":[1,3,5,-1,-1,-1,-1],"loss_changes":[4.868844E3,8.6628723E-1,6.495039E2,0E0,0E0,0E0,0E0],"parents":[2147483647,0,0,1,1,2,2],"right_children":[2,4,6,-1,-1,-1,-1],"split_conditions":[3.2533817E-2,1.9892067E-1,5.8175063E-1,-1.5270527E-1,7.145474E-2,6.730261E0,-8.910158E-2],"split_indices":[28472,14561,22138,0,0,0,0],"split_type":[0,0,0,0,0,0,0],"sum_hessian":[6.59341E2,6.4828845E2,1.1052515E1,6.4727E2,1.0184911E0,9.656805E0,1.3957101E0],"tree_param":{"num_deleted":"0","num_feature":"51653","num_nodes":"7","size_leaf_vector":"0"}},{"base_weights":[-3.0459207E-1,-4.4798034E-1,1.5166929E1,-4.8893377E-1,2.5737023E0,3.2810543E0,1.7542263E1,-4.9508044E-1,1.343465E0,5.690987E0,2.258687E-1,1.2290215E0,-4.9970925E-1,6.988642E0,1.1971222E0,1.7244412E0,-4.100709E-1,7.3360205E-1,-5.027996E-1,-5.074372E-1,-2.7780964E-3],"categories":[],"categories_nodes":[],"categories_segments":[],"categories_sizes":[],"default_left":[1,1,0,0,1,0,0,0,0,1,0,0,0,0,0,0,0,0,1,0,0],"id":26,"left_children":[1,3,5,7,9,-1,-1,11,-1,13,15,-1,17,-1,-1,-1,-1,-1,19,-1,-1],"loss_changes":[1.471718E3,8.234425E1,1.1445068E2,7.9560394E0,6.401056E1,0E0,0E0,5.768738E0,0E0,1.374337E1,6.5492115E0,0E0,2.8266754E0,0E0,0E0,0E0,0E0,0E0,1.4916534E0,0E0,0E0],"parents":[2147483647,0,0,1,1,2,2,3,3,4,4,7,7,9,9,10,10,12,12,18,18],"right_children":[2,4,6,8,10,-1,-1,12,-1,14,16,-1,18,-1,-1,-1,-1,-1,20,-1,-1],"split_conditions":[1.7899424E-1,7.414699E-2,1.1199936E-1,1.4227405E-1,2.7762953E-2,9.843163E-1,5.262679E0,1.3142411E-1,4.0303952E-1,4.6392485E-2,3.8581562E-1,3.6870646E-1,3.3880055E-1,2.0965927E0,3.5913667E-1,5.173324E-1,-1.23021275E-1,2.2008063E-1,5.8742046E-2,-1.5223117E-1,-8.3342893E-4],"split_indices":[24651,24651,8990,9581,41825,0,0,18792,0,19713,0,0,33465,0,0,0,0,0,24651,0,0],"split_type":[0,0,0,0,0,0,0,0,0,0,0,0,0,0,0,0,0,0,0,0,0],"sum_hessian":[6.59341E2,6.5424854E2,5.092456E0,6.4632697E2,7.921598E0,1.2448225E0,3.8476334E0,6.448935E2,1.433432E0,2.7914202E0,5.1301775E0,1.0184911E0,6.43875E2,1.7352072E0,1.056213E0,1.0184911E0,4.1116867E0,1.0184911E0,6.428565E2,6.369342E2,5.9223375E0],"tree_param":{"num_deleted":"0","num_feature":"51653","num_nodes":"21","size_leaf_vector":"0"}},{"base_weights":[3.8444588E-1,-5.0737447E-1,1.4268109E1,-5.0898224E-1,2.3818247E-1,1.7168503E1,-3.1118032E-1,2.1108507E1,6.1306653E0,-4.3235955E-1,2.3818247E-1,2.1931622E1,1.2290215E0,2.1720126E0,1.5902373E1,2.2513712E1,4.6969585E0,6.2970157E0,6.6204923E-1,6.6786366E0,2.2962223E1,-2.2495116E-1,2.025974E0],"categories":[],"categories_nodes":[],"categories_segments":[],"categories_sizes":[],"default_left":[1,1,0,0,0,1,0,1,0,0,0,1,0,1,0,0,0,0,1,0,0,0,0],"id":27,"left_children":[1,3,5,-1,-1,7,9,11,13,-1,-1,15,-1,17,-1,19,-1,-1,21,-1,-1,-1,-1],"loss_changes":[8.1834053E3,8.661804E-1,1.6921719E3,0E0,0E0,1.3183418E3,6.090115E-1,3.6778027E2,3.5872546E2,0E0,0E0,1.2604883E2,0E0,4.8110794E1,0E0,3.5048828E0,0E0,0E0,9.241126E0,0E0,0E0,0E0,0E0],"parents":[2147483647,0,0,1,1,2,2,5,5,6,6,7,7,8,8,11,11,13,13,15,15,18,18],"right_children":[2,4,6,-1,-1,8,10,12,14,-1,-1,16,-1,18,-1,20,-1,-1,22,-1,-1,-1,-1],"split_conditions":[1.6591065E-2,1.9892067E-1,2.3729303E-1,-1.5269467E-1,7.145474E-2,6.305568E-2,2.4615172E-1,4.6781443E-2,3.076762E-1,-1.2970787E-1,7.145474E-2,6.588875E-2,3.6870646E-1,3.3552602E-2,4.7707124E0,1.1023076E-2,1.4090877E0,1.8891047E0,5.4784536E-2,2.003591E0,6.888667E0,-6.7485355E-2,6.0779226E-1],"split_indices":[16379,14561,24892,0,0,43285,5386,50276,41825,0,0,50313,0,25460,0,9324,0,0,14604,0,0,0,0],"split_type":[0,0,0,0,0,0,0,0,0,0,0,0,0,0,0,0,0,0,0,0,0,0,0],"sum_hessian":[6.59341E2,6.204497E2,3.8891273E1,6.194312E2,1.0184911E0,3.2289944E1,6.6013317E0,2.3123522E1,9.16642E0,5.5828404E0,1.0184911E0,2.210503E1,1.0184911E0,7.3934913E0,1.7729291E0,2.1086538E1,1.0184911E0,1.1316569E0,6.2618346E0,1.0184911E0,2.0068048E1,4.300296E0,1.9615386E0],"tree_param":{"num_deleted":"0","num_feature":"51653","num_nodes":"23","size_leaf_vector":"0"}},{"base_weights":[-4.8480198E-1,6.381599E0,-5.090303E-1],"categories":[],"categories_nodes":[],"categories_segments":[],"categories_sizes":[],"default_left":[0,0,0],"id":28,"left_children":[1,-1,-1],"loss_changes":[1.13103424E2,0E0,0E0],"parents":[2147483647,0,0],"right_children":[2,-1,-1],"split_conditions":[7.3563886E-1,1.9144797E0,-1.527091E-1],"split_indices":[25282,0,0],"split_type":[0,0,0],"sum_hessian":[6.59341E2,1.3957101E0,6.579453E2],"tree_param":{"num_deleted":"0","num_feature":"51653","num_nodes":"3","size_leaf_vector":"0"}},{"base_weights":[-3.712243E-1,-5.073806E-1,1.8529474E0,-5.089843E-1,2.3818247E-1,1.3083758E1,-4.9418908E-1,1.77352E1,-3.2081163E-1],"categories":[],"categories_nodes":[],"categories_segments":[],"categories_sizes":[],"default_left":[1,1,0,0,0,0,0,0,0],"id":29,"left_children":[1,3,5,-1,-1,7,-1,-1,-1],"loss_changes":[2.0091452E2,8.661804E-1,1.0162465E3,0E0,0E0,4.2083765E2,0E0,0E0,0E0],"parents":[2147483647,0,0,1,1,2,2,5,5],"right_children":[2,4,6,-1,-1,8,-1,-1,-1],"split_conditions":[7.1244347E-3,1.9892067E-1,1.6327041E-1,-1.526953E-1,7.145474E-2,1.2808666E0,-1.4825673E-1,5.3205605E0,-9.624349E-2],"split_indices":[5336,14561,26896,0,0,39419,0,0,0],"split_type":[0,0,0,0,0,0,0,0,0],"sum_hessian":[6.59341E2,6.2203406E2,3.7306953E1,6.2101556E2,1.0184911E0,5.658284E0,3.164867E1,3.960799E0,1.6974852E0],"tree_param":{"num_deleted":"0","num_feature":"51653","num_nodes":"9","size_leaf_vector":"0"}},{"base_weights":[-4.8025888E-1,-5.044601E-1,3.1220305E0,-5.074979E-1,3.06471E-1,3.06471E-1,5.3618674E0,-5.09024E-1,2.3818247E-1,7.3360205E-1,-2.618705E-1,-2.618705E-1,7.3360205E-1],"categories":[],"categories_nodes":[],"categories_segments":[],"categories_sizes":[],"default_left":[1,1,1,1,1,0,0,0,0,0,0,0,0],"id":30,"left_children":[1,3,5,7,9,11,-1,-1,-1,-1,-1,-1,-1],"loss_changes":[5.9143295E1,1.7735138E0,2.702472E1,8.66333E-1,9.3851244E-1,9.3851244E-1,0E0,0E0,0E0,0E0,0E0,0E0,0E0],"parents":[2147483647,0,0,1,1,2,2,3,3,4,4,5,5],"right_children":[2,4,6,8,10,12,-1,-1,-1,-1,-1,-1,-1],"split_conditions":[1.15753636E-1,8.725372E-2,5.0635908E-2,7.923816E-2,1.2474578E-2,2.2255134E-2,1.6085603E0,-1.5270722E-1,7.145474E-2,2.2008063E-1,-7.856116E-2,-7.856116E-2,2.2008063E-1],"split_indices":[27517,27261,27261,9386,3665,3665,0,0,0,0,0,0,0],"split_type":[0,0,0,0,0,0,0,0,0,0,0,0,0],"sum_hessian":[6.59341E2,6.5579517E2,3.5458581E0,6.5372046E2,2.0747042E0,2.0747042E0,1.4711539E0,6.5270197E2,1.0184911E0,1.0184911E0,1.056213E0,1.056213E0,1.0184911E0],"tree_param":{"num_deleted":"0","num_feature":"51653","num_nodes":"13","size_leaf_vector":"0"}},{"base_weights":[-1.758707E-1,-5.09016E-1,1.4893412E1,2.1424366E1,-4.1293043E-1,2.2458124E1,6.183217E0],"categories":[],"categories_nodes":[],"categories_segments":[],"categories_sizes":[],"default_left":[1,0,0,0,0,0,0],"id":31,"left_children":[1,-1,3,5,-1,-1,-1],"loss_changes":[3.3226653E3,0E0,1.4399287E3,1.9532715E1,0E0,0E0,0E0],"parents":[2147483647,0,0,2,2,3,3],"right_children":[2,-1,4,6,-1,-1,-1],"split_conditions":[2.6265688E-2,-1.527048E-1,4.7481364E-1,3.492449E-1,-1.23879135E-1,6.7374377E0,1.8549652E0],"split_indices":[17381,0,24892,29604,0,0,0],"split_type":[0,0,0,0,0,0,0],"sum_hessian":[6.59341E2,6.4602515E2,1.3315829E1,9.053255E0,4.262574E0,8.034763E0,1.0184911E0],"tree_param":{"num_deleted":"0","num_feature":"51653","num_nodes":"7","size_leaf_vector":"0"}},{"base_weights":[9.065826E-2,-5.074533E-1,2.0272522E1,-5.0900894E-1,2.3818247E-1,2.2062136E1,-3.066038E-1,6.897209E0,2.265211E1],"categories":[],"categories_nodes":[],"categories_segments":[],"categories_sizes":[],"default_left":[1,1,0,0,0,1,0,0,0],"id":32,"left_children":[1,3,5,-1,-1,7,-1,-1,-1],"loss_changes":[7.9812686E3,8.662567E-1,7.0765283E2,0E0,0E0,5.332031E-1,0E0,0E0,0E0],"parents":[2147483647,0,0,1,1,2,2,5,5],"right_children":[2,4,6,-1,-1,8,-1,-1,-1],"split_conditions":[9.518678E-3,1.9892067E-1,1.2509651E0,-1.5270269E-1,7.145474E-2,3.202302E-2,-9.198114E-2,2.0691628E0,6.795633E0],"split_indices":[22650,14561,29630,0,0,22099,0,0,0],"split_type":[0,0,0,0,0,0,0,0,0],"sum_hessian":[6.59341E2,6.4130994E2,1.8031065E1,6.4029144E2,1.0184911E0,1.652219E1,1.5088758E0,1.0939349E0,1.5428255E1],"tree_param":{"num_deleted":"0","num_feature":"51653","num_nodes":"9","size_leaf_vector":"0"}},{"base_weights":[-4.1816974E-1,1.594088E1,-5.0902873E-1],"categories":[],"categories_nodes":[],"categories_segments":[],"categories_sizes":[],"default_left":[0,0,0],"id":33,"left_children":[1,-1,-1],"loss_changes":[9.896235E2,0E0,0E0],"parents":[2147483647,0,0],"right_children":[2,-1,-1],"split_conditions":[5.938608E-1,4.782264E0,-1.5270862E-1],"split_indices":[32050,0,0],"split_type":[0,0,0],"sum_hessian":[6.59341E2,2.6782546E0,6.566627E2],"tree_param":{"num_deleted":"0","num_feature":"51653","num_nodes":"3","size_leaf_vector":"0"}},{"base_weights":[-4.9237382E-1,-5.0901604E-1,2.9631162E-1,4.6174626E0,-4.7068837E-1],"categories":[],"categories_nodes":[],"categories_segments":[],"categories_sizes":[],"default_left":[1,0,0,0,0],"id":34,"left_children":[1,-1,3,-1,-1],"loss_changes":[8.8181305E0,0E0,4.9495644E1,0E0,0E0],"parents":[2147483647,0,0,2,2],"right_children":[2,-1,4,-1,-1],"split_conditions":[5.072926E-2,-1.5270482E-1,2.457135E-1,1.3852389E0,-1.4120652E-1],"split_indices":[17609,0,7033,0,0],"split_type":[0,0,0,0,0],"sum_hessian":[6.59341E2,6.4606287E2,1.3278107E1,1.2448225E0,1.2033284E1],"tree_param":{"num_deleted":"0","num_feature":"51653","num_nodes":"5","size_leaf_vector":"0"}},{"base_weights":[-2.59161E-1,-5.044055E-1,1.4019573E1,1.2290215E0,-5.0901854E-1,1.9388153E1,-3.8291606E-1,5.6877975E0,2.0544437E1],"categories":[],"categories_nodes":[],"categories_segments":[],"categories_sizes":[],"default_left":[1,0,0,0,0,1,0,0,0],"id":35,"left_children":[1,3,5,-1,-1,7,-1,-1,-1],"loss_changes":[2.3194417E3,5.824478E0,8.722517E2,0E0,0E0,1.2527588E1,0E0,0E0,0E0],"parents":[2147483647,0,0,1,1,2,2,5,5],"right_children":[2,4,6,-1,-1,8,-1,-1,-1],"split_conditions":[2.79483E-2,3.9656676E-2,8.321264E-1,3.6870646E-1,-1.5270557E-1,2.780118E-2,-1.14874825E-1,1.7063394E0,6.1633315E0],"split_indices":[20443,5932,35966,0,0,17165,0,0,0],"split_type":[0,0,0,0,0,0,0,0,0],"sum_hessian":[6.59341E2,6.4915607E2,1.0184912E1,1.0184911E0,6.481376E2,7.16716E0,3.0177517E0,1.0184911E0,6.148669E0],"tree_param":{"num_deleted":"0","num_feature":"51653","num_nodes":"9","size_leaf_vector":"0"}},{"base_weights":[-9.863787E-2,-2.7024946E-1,6.6761045E0,-4.1419578E-1,1.0119557E0,8.403802E0,-1.5719469E-1,-5.0451607E-1,-9.529037E-3,7.168352E-1,5.3416786E0,1.9407873E0,1.0745462E1,2.3818247E-1,-3.5358116E-1,-5.066161E-1,2.3818247E-1,-9.272483E-2,2.3770823E0,2.0763564E0,4.10002E-2,7.1079135E-1,6.7532463E0,-3.259536E-1,3.4267642E0,1.1573537E1,2.169784E0,2.3818247E-1,-5.087252E-1,-1.3605922E-1,1.9040829E0,4.2520103E0,-3.0030397E-1,1.0369833E0,3.4646897E0,-1.3977177E-1,1.6174718E0,1.2569068E1,3.2810543E0,1.22546665E-1,-4.7604242E-1,2.4642165E0,3.3666858E-1,4.3471333E-1,4.828523E0,1.6863207E0,-2.5757727E-1,-3.1537378E-1,2.8288755E0,4.450749E0,1.3658524E1],"categories":[],"categories_nodes":[],"categories_segments":[],"categories_sizes":[],"default_left":[1,1,1,1,0,1,0,1,1,1,1,1,1,0,0,0,0,1,1,1,1,0,0,0,0,1,0,0,0,1,0,0,0,0,0,0,0,1,0,0,0,0,0,0,0,0,0,0,0,0,0],"id":36,"left_children":[1,3,5,7,9,11,13,15,17,19,21,23,25,-1,-1,27,-1,29,31,33,35,-1,-1,-1,-1,37,-1,-1,-1,39,-1,-1,-1,41,43,45,47,49,-1,-1,-1,-1,-1,-1,-1,-1,-1,-1,-1,-1,-1],"loss_changes":[7.6953265E2,1.19463776E2,1.9438025E2,2.121579E1,7.972721E1,1.7696442E2,4.1668496E-1,8.609543E-1,2.1458128E1,5.7224415E1,2.1463135E1,1.6937134E1,4.1457397E1,0E0,0E0,8.6515045E-1,0E0,9.285949E0,1.955203E1,2.626397E1,1.2389872E1,0E0,0E0,0E0,0E0,2.74292E1,0E0,0E0,0E0,9.117584E0,0E0,0E0,0E0,1.2423528E1,3.274198E1,8.869848E0,1.1359431E1,1.7687988E0,0E0,0E0,0E0,0E0,0E0,0E0,0E0,0E0,0E0,0E0,0E0,0E0,0E0],"parents":[2147483647,0,0,1,1,2,2,3,3,4,4,5,5,6,6,7,7,8,8,9,9,10,10,11,11,12,12,15,15,17,17,18,18,19,19,20,20,25,25,29,29,33,33,34,34,35,35,36,36,37,37],"right_children":[2,4,6,8,10,12,14,16,18,20,22,24,26,-1,-1,28,-1,30,32,34,36,-1,-1,-1,-1,38,-1,-1,-1,40,-1,-1,-1,42,44,46,48,50,-1,-1,-1,-1,-1,-1,-1,-1,-1,-1,-1,-1,-1],"split_conditions":[8.448273E-2,3.558155E-2,4.502299E-2,1.6577024E-2,4.2101234E-2,1.3105795E-2,2.3884324E-2,1.1729187E-1,4.7907952E-2,6.7411205E-3,1.1310611E-2,1.420971E-2,4.143311E-2,7.145474E-2,-1.06074356E-1,4.5913257E-2,7.145474E-2,4.6928287E-2,2.1764651E-2,6.150935E-2,1.1525285E-1,2.1323742E-1,2.025974E0,-9.7786084E-2,1.0280293E0,3.787685E-2,6.5093523E-1,7.145474E-2,-1.5261757E-1,3.2941885E-2,5.7122487E-1,1.2756032E0,-9.009119E-2,5.1341843E-2,4.20786E-2,6.40405E-2,8.189526E-2,4.5445785E-2,9.843163E-1,3.6764E-2,-1.4281273E-1,7.3926497E-1,1.0100058E-1,1.3041401E-1,1.448557E0,5.058962E-1,-7.727318E-2,-9.461214E-2,8.486627E-1,1.3352247E0,4.097557E0],"split_indices":[33816,33816,43285,33816,9928,35528,3665,3659,39932,41825,9324,46784,47485,0,0,4486,0,14086,6377,15620,40709,0,0,0,0,35901,0,0,0,43285,0,0,0,37461,47092,32931,6187,5750,0,0,0,0,0,0,0,0,0,0,0,0,0],"split_type":[0,0,0,0,0,0,0,0,0,0,0,0,0,0,0,0,0,0,0,0,0,0,0,0,0,0,0,0,0,0,0,0,0,0,0,0,0,0,0,0,0,0,0,0,0,0,0,0,0,0,0],"sum_hessian":[6.59341E2,6.4398816E2,1.5352811E1,5.795969E2,6.439127E1,1.2071007E1,3.2818048E0,4.736361E2,1.059608E2,6.1373524E1,3.0177517E0,3.6967456E0,8.374261E0,1.0184911E0,2.2633138E0,4.726176E2,1.0184911E0,1.0332027E2,2.6405327E0,1.9690828E1,4.1682693E1,1.056213E0,1.9615386E0,1.7729291E0,1.9238167E0,7.3180475E0,1.056213E0,1.0184911E0,4.7159912E2,1.0203773E2,1.2825444E0,1.2071006E0,1.433432E0,1.2259616E1,7.4312134E0,3.821228E1,3.4704144E0,6.073225E0,1.2448225E0,5.831805E1,4.3719677E1,3.206361E0,9.053255E0,2.7159765E0,4.7152367E0,1.5088758E0,3.6703403E1,1.6220415E0,1.8483728E0,1.3202664E0,4.752959E0],"tree_param":{"num_deleted":"0","num_feature":"51653","num_nodes":"51","size_leaf_vector":"0"}},{"base_weights":[1.2700312E-1,2.3032755E1,-5.090117E-1,2.3922009E1,4.201539E0],"categories":[],"categories_nodes":[],"categories_segments":[],"categories_sizes":[],"default_left":[0,0,0,0,0],"id":37,"left_children":[1,3,-1,-1,-1],"loss_changes":[9.631833E3,1.9859766E2,0E0,0E0,0E0],"parents":[2147483647,0,0,1,1],"right_children":[2,4,-1,-1,-1],"split_conditions":[7.828668E-1,3.5741392E-1,-1.5270351E-1,7.176603E0,1.2604618E0],"split_indices":[8265,11008,0,0,0],"split_type":[0,0,0,0,0],"sum_hessian":[6.59341E2,1.6861687E1,6.424793E2,1.5843196E1,1.0184911E0],"tree_param":{"num_deleted":"0","num_feature":"51653","num_nodes":"5","size_leaf_vector":"0"}},{"base_weights":[-4.6208644E-1,-5.059897E-1,8.328754E0,4.2061967E-1,-5.090271E-1,1.7426272E-1,1.2864676E1],"categories":[],"categories_nodes":[],"categories_segments":[],"categories_sizes":[],"default_left":[1,0,1,0,0,0,0],"id":38,"left_children":[1,3,5,-1,-1,-1,-1],"loss_changes":[2.590702E2,2.066101E0,1.2125261E2,0E0,0E0,0E0,0E0],"parents":[2147483647,0,0,1,1,2,2],"right_children":[2,4,6,-1,-1,-1,-1],"split_conditions":[6.730665E-2,5.3844728E-2,6.938488E-2,1.2618591E-1,-1.5270814E-1,5.2278817E-2,3.8594031E0],"split_indices":[36536,34127,34127,0,0,0,0],"split_type":[0,0,0,0,0,0,0],"sum_hessian":[6.59341E2,6.5700226E2,2.3387575E0,1.6974852E0,6.5530475E2,1.2071006E0,1.1316569E0],"tree_param":{"num_deleted":"0","num_feature":"51653","num_nodes":"7","size_leaf_vector":"0"}},{"base_weights":[-4.545146E-1,-4.983765E-1,6.5691977E0,1.4135252E0,-5.0902474E-1,9.105058E-1,9.317795E0,-3.2341808E-1,2.9519262E0],"categories":[],"categories_nodes":[],"categories_segments":[],"categories_sizes":[],"default_left":[1,0,0,0,0,0,0,0,0],"id":39,"left_children":[1,3,5,7,-1,-1,-1,-1,-1],"loss_changes":[2.0670723E2,1.4098526E1,5.6352905E1,1.1388209E1,0E0,0E0,0E0,0E0,0E0],"parents":[2147483647,0,0,1,1,2,2,3,3],"right_children":[2,4,6,8,-1,-1,-1,-1,-1],"split_conditions":[8.692476E-2,6.123291E-2,4.3244117E-1,4.0272558E-1,-1.5270743E-1,2.7315176E-1,2.7953386E0,-9.702543E-2,8.855779E-1],"split_indices":[37313,37313,43285,50201,0,0,0,0,0],"split_type":[0,0,0,0,0,0,0,0,0],"sum_hessian":[6.59341E2,6.5617236E2,3.1686392E0,2.9045858E0,6.5326776E2,1.4711539E0,1.6974852E0,1.7352072E0,1.1693788E0],"tree_param":{"num_deleted":"0","num_feature":"51653","num_nodes":"9","size_leaf_vector":"0"}},{"base_weights":[-2.5310352E-1,-4.7217762E-1,1.4128878E1,-5.0901246E-1,2.4502008E0,1.9321774E1,-3.683022E-1,-2.830482E-1,8.456417E0,2.3818247E-1,-4.1940984E-1],"categories":[],"categories_nodes":[],"categories_segments":[],"categories_sizes":[],"default_left":[1,1,0,0,1,0,0,0,0,0,0],"id":40,"left_children":[1,3,5,-1,7,-1,-1,9,-1,-1,-1],"loss_changes":[2.0872207E3,7.13674E1,7.5542957E2,0E0,1.3832742E2,0E0,0E0,5.7313937E-1,0E0,0E0,0E0],"parents":[2147483647,0,0,1,1,2,2,4,4,7,7],"right_children":[2,4,6,-1,8,-1,-1,10,-1,-1,-1],"split_conditions":[7.6625854E-2,2.6595214E-2,9.0717053E-1,-1.5270375E-1,3.453853E-2,5.796532E0,-1.10490665E-1,1.0560541E-1,2.5369253E0,7.145474E-2,-1.2582296E-1],"split_indices":[17819,17819,37045,0,37045,0,0,0,0,0,0],"split_type":[0,0,0,0,0,0,0,0,0,0,0],"sum_hessian":[6.59341E2,6.504009E2,8.940089E0,6.431206E2,7.280326E0,6.3372784E0,2.6028106E0,5.658284E0,1.6220415E0,1.0184911E0,4.639793E0],"tree_param":{"num_deleted":"0","num_feature":"51653","num_nodes":"11","size_leaf_vector":"0"}},{"base_weights":[8.584434E-1,-4.7732154E-1,1.4058719E1,-5.0394857E-1,6.970509E0,-4.1747704E-1,1.8967518E1,-5.089519E-1,1.1663723E0,2.3818247E-1,-4.7655797E-1,1.9287833E0,1.991201E1,-3.0350196E-1,3.7061193E0,9.258118E0,2.0882526E1,1.17358885E1,1.861575E-1,4.88966E0,2.1236044E1,1.34524355E1,3.2106998E0,4.6969585E0,2.157028E1],"categories":[],"categories_nodes":[],"categories_segments":[],"categories_sizes":[],"default_left":[1,1,1,1,0,0,0,0,0,0,0,0,0,0,0,1,0,1,0,0,0,0,0,0,0],"id":41,"left_children":[1,3,5,7,-1,9,11,-1,-1,-1,-1,13,15,-1,-1,17,19,21,-1,-1,23,-1,-1,-1,-1],"loss_changes":[1.1650149E4,1.2262544E2,4.322284E3,5.6030273E0,0E0,7.469661E-1,6.9158594E2,0E0,0E0,0E0,0E0,1.4970053E1,2.4994531E2,0E0,0E0,1.18652466E2,1.1380664E2,1.8363647E1,0E0,0E0,1.0523242E2,0E0,0E0,0E0,0E0],"parents":[2147483647,0,0,1,1,2,2,3,3,5,5,6,6,11,11,12,12,15,15,16,16,17,17,20,20],"right_children":[2,4,6,8,-1,10,12,-1,-1,-1,-1,14,16,-1,-1,18,20,22,-1,-1,24,-1,-1,-1,-1],"split_conditions":[2.0481903E-2,1.00428045E-1,1.7633496E-2,1.3020571E-2,2.091153E0,3.2943662E-2,4.711494E-2,-1.5268558E-1,3.499117E-1,7.145474E-2,-1.429674E-1,5.1688585E-2,3.746023E-2,-9.1050595E-2,1.1118358E0,4.1162208E-2,9.368341E-2,1.8504314E-2,5.584725E-2,1.466898E0,7.935104E-2,4.035731E0,9.6321E-1,1.4090877E0,6.471084E0],"split_indices":[44084,29538,38596,44084,0,3624,1976,0,0,0,0,9228,24489,0,0,43285,10176,41806,0,0,30418,0,0,0,0],"split_type":[0,0,0,0,0,0,0,0,0,0,0,0,0,0,0,0,0,0,0,0,0,0,0,0,0],"sum_hessian":[6.59341E2,5.9962726E2,5.971376E1,5.9842017E2,1.2071006E0,1.5352811E1,4.4360947E1,5.973262E2,1.0939349E0,1.0184911E0,1.433432E1,2.489645E0,4.1871304E1,1.4711539E0,1.0184911E0,4.3757396E0,3.7495564E1,3.206361E0,1.1693788E0,1.1316569E0,3.6363907E1,2.1878698E0,1.0184911E0,1.0184911E0,3.5345417E1],"tree_param":{"num_deleted":"0","num_feature":"51653","num_nodes":"25","size_leaf_vector":"0"}},{"base_weights":[-2.8490525E-1,1.792947E1,-5.0902355E-1,3.2106998E0,1.9603868E1],"categories":[],"categories_nodes":[],"categories_segments":[],"categories_sizes":[],"default_left":[0,1,0,0,0],"id":42,"left_children":[1,3,-1,-1,-1],"loss_changes":[2.704754E3,1.3554907E2,0E0,0E0,0E0],"parents":[2147483647,0,0,1,1],"right_children":[2,4,-1,-1,-1],"split_conditions":[4.8228192E-1,2.8474182E-2,-1.5270707E-1,9.6321E-1,5.8811607E0],"split_indices":[50533,39665,0,0,0],"split_type":[0,0,0,0,0],"sum_hessian":[6.59341E2,7.053994E0,6.52287E2,1.0184911E0,6.0355034E0],"tree_param":{"num_deleted":"0","num_feature":"51653","num_nodes":"5","size_leaf_vector":"0"}},{"base_weights":[-4.7268704E-1,-5.0902975E-1,8.210526E0],"categories":[],"categories_nodes":[],"categories_segments":[],"categories_sizes":[],"default_left":[1,0,0],"id":43,"left_children":[1,-1,-1],"loss_changes":[2.1256433E2,0E0,0E0],"parents":[2147483647,0,0],"right_children":[2,-1,-1],"split_conditions":[4.4940777E-2,-1.5270893E-1,2.4631581E0],"split_indices":[17177,0,0],"split_type":[0,0,0],"sum_hessian":[6.59341E2,6.5753033E2,1.810651E0],"tree_param":{"num_deleted":"0","num_feature":"51653","num_nodes":"3","size_leaf_vector":"0"}},{"base_weights":[-3.28822E-1,2.0128496E1,-5.090262E-1],"categories":[],"categories_nodes":[],"categories_segments":[],"categories_sizes":[],"default_left":[0,0,0],"id":44,"left_children":[1,-1,-1],"loss_changes":[2.4445906E3,0E0,0E0],"parents":[2147483647,0,0],"right_children":[2,-1,-1],"split_conditions":[5.794359E-1,6.038549E0,-1.5270787E-1],"split_indices":[41658,0,0],"split_type":[0,0,0],"sum_hessian":[6.59341E2,4.7906804E0,6.545503E2],"tree_param":{"num_deleted":"0","num_feature":"51653","num_nodes":"3","size_leaf_vector":"0"}},{"base_weights":[-4.893451E-1,-5.090307E-1,6.183217E0],"categories":[],"categories_nodes":[],"categories_segments":[],"categories_sizes":[],"default_left":[1,0,0],"id":45,"left_children":[1,-1,-1],"loss_changes":[8.98855E1,0E0,0E0],"parents":[2147483647,0,0],"right_children":[2,-1,-1],"split_conditions":[7.232769E-2,-1.5270922E-1,1.8549652E0],"split_indices":[29085,0,0],"split_type":[0,0,0],"sum_hessian":[6.59341E2,6.583225E2,1.0184911E0],"tree_param":{"num_deleted":"0","num_feature":"51653","num_nodes":"3","size_leaf_vector":"0"}},{"base_weights":[-7.8951076E-2,-4.8876458E-1,1.3616856E1,1.6487805E0,-5.011838E-1,-3.2911393E-1,2.2291271E1,-3.3544144E-1,3.7061193E0,-5.0900507E-1,2.2198608E0,2.3818247E-1,-4.4032258E-1],"categories":[],"categories_nodes":[],"categories_segments":[],"categories_sizes":[],"default_left":[1,0,1,1,1,0,0,0,0,0,0,0,0],"id":46,"left_children":[1,3,5,7,9,11,-1,-1,-1,-1,-1,-1,-1],"loss_changes":[3.7129692E3,1.7872498E1,2.3324006E3,1.733654E1,1.4732941E1,6.320281E-1,0E0,0E0,0E0,0E0,0E0,0E0,0E0],"parents":[2147483647,0,0,1,1,2,2,3,3,4,4,5,5],"right_children":[2,4,6,8,10,12,-1,-1,-1,-1,-1,-1,-1],"split_conditions":[3.682257E-2,3.497258E-2,2.7431786E-2,9.636709E-3,1.9892067E-1,3.8969964E-2,6.6873817E0,-1.0063244E-1,1.1118358E0,-1.5270153E-1,6.659583E-1,7.145474E-2,-1.3209678E-1],"split_indices":[19344,19344,44504,12303,14561,353,0,0,0,0,0,0,0],"split_type":[0,0,0,0,0,0,0,0,0,0,0,0,0],"sum_hessian":[6.59341E2,6.4112134E2,1.8219675E1,2.9423077E0,6.38179E2,7.3557696E0,1.0863906E1,1.9238167E0,1.0184911E0,6.371605E2,1.0184911E0,1.0184911E0,6.3372784E0],"tree_param":{"num_deleted":"0","num_feature":"51653","num_nodes":"13","size_leaf_vector":"0"}},{"base_weights":[-1.5164079E-1,2.0707186E1,-5.0901985E-1,4.6014385E0,2.1936962E1],"categories":[],"categories_nodes":[],"categories_segments":[],"categories_sizes":[],"default_left":[0,0,0,0,0],"id":47,"left_children":[1,3,-1,-1,-1],"loss_changes":[4.9330566E3,1.19845215E2,0E0,0E0,0E0],"parents":[2147483647,0,0,1,1],"right_children":[2,4,-1,-1,-1],"split_conditions":[3.3258855E-1,3.715597E-2,-1.5270597E-1,1.3804317E0,6.581089E0],"split_indices":[25402,12718,0,0,0],"split_type":[0,0,0,0,0],"sum_hessian":[6.59341E2,1.014719E1,6.491938E2,1.056213E0,9.090977E0],"tree_param":{"num_deleted":"0","num_feature":"51653","num_nodes":"5","size_leaf_vector":"0"}},{"base_weights":[-3.57595E-1,-5.0598E-1,1.9197987E1,7.3360205E-1,-5.09026E-1],"categories":[],"categories_nodes":[],"categories_segments":[],"categories_sizes":[],"default_left":[1,0,0,0,0],"id":48,"left_children":[1,3,-1,-1,-1],"loss_changes":[1.9258617E3,2.851593E0,0E0,0E0,0E0],"parents":[2147483647,0,0,1,1],"right_children":[2,4,-1,-1,-1],"split_conditions":[5.5559754E-2,7.334596E-2,5.759396E0,2.2008063E-1,-1.527078E-1],"split_indices":[46531,3782,0,0,0],"split_type":[0,0,0,0,0],"sum_hessian":[6.59341E2,6.5534247E2,3.9985209E0,1.0184911E0,6.54324E2],"tree_param":{"num_deleted":"0","num_feature":"51653","num_nodes":"5","size_leaf_vector":"0"}},{"base_weights":[-6.2293015E-2,2.2820505E1,-5.059353E-1,2.3751278E1,6.183217E0,-5.090169E-1,7.3360205E-1],"categories":[],"categories_nodes":[],"categories_segments":[],"categories_sizes":[],"default_left":[0,0,1,0,0,0,0],"id":49,"left_children":[1,3,5,-1,-1,-1,-1],"loss_changes":[6.7151807E3,4.7958008E1,2.8514862E0,0E0,0E0,0E0,0E0],"parents":[2147483647,0,0,1,1,2,2],"right_children":[2,4,6,-1,-1,-1,-1],"split_conditions":[1.373422E-1,1.6285117E-1,8.051477E-2,7.125384E0,1.8549652E0,-1.5270507E-1,2.2008063E-1],"split_indices":[37960,4804,4804,0,0,0,0],"split_type":[0,0,0,0,0,0,0],"sum_hessian":[6.59341E2,1.1580622E1,6.477604E2,1.0562131E1,1.0184911E0,6.467419E2,1.0184911E0],"tree_param":{"num_deleted":"0","num_feature":"51653","num_nodes":"7","size_leaf_vector":"0"}},{"base_weights":[-4.9691695E-1,-5.090307E-1,3.7061193E0],"categories":[],"categories_nodes":[],"categories_segments":[],"categories_sizes":[],"default_left":[1,0,0],"id":50,"left_children":[1,-1,-1],"loss_changes":[3.5507507E1,0E0,0E0],"parents":[2147483647,0,0],"right_children":[2,-1,-1],"split_conditions":[1.3649237E-1,-1.5270922E-1,1.1118358E0],"split_indices":[47688,0,0],"split_type":[0,0,0],"sum_hessian":[6.59341E2,6.583225E2,1.0184911E0],"tree_param":{"num_deleted":"0","num_feature":"51653","num_nodes":"3","size_leaf_vector":"0"}},{"base_weights":[-4.5754334E-1,9.944431E0,-5.090292E-1,1.3583186E1,1.9865952E0],"categories":[],"categories_nodes":[],"categories_segments":[],"categories_sizes":[],"default_left":[0,0,0,0,0],"id":51,"left_children":[1,3,-1,-1,-1],"loss_changes":[3.5871057E2,6.860251E1,0E0,0E0,0E0],"parents":[2147483647,0,0,1,1],"right_children":[2,4,-1,-1,-1],"split_conditions":[9.697513E-1,1.9823694E-1,-1.5270877E-1,4.074956E0,5.9597856E-1],"split_indices":[19383,43802,0,0,0],"split_type":[0,0,0,0,0],"sum_hessian":[6.59341E2,2.3010356E0,6.5704E2,1.0939349E0,1.2071006E0],"tree_param":{"num_deleted":"0","num_feature":"51653","num_nodes":"5","size_leaf_vector":"0"}},{"base_weights":[4.6884722E-1,1.0795437E0,-4.4145367E-1,9.443877E-1,5.246455E0,-5.0225E-1,4.426545E-1,8.355965E-1,3.5020432E0,-3.4745356E-1,7.751736E-1,2.5853457E0,7.847707E-1,8.2472587E-1,-4.8662448E-1,-5.195403E-1,8.564652E-1],"categories":[],"categories_nodes":[],"categories_segments":[],"categories_sizes":[],"default_left":[0,1,1,1,0,0,1,0,0,0,0,0,1,0,0,0,0],"id":52,"left_children":[1,3,5,7,-1,-1,9,11,-1,-1,-1,-1,13,15,-1,-1,-1],"loss_changes":[8.522992E1,4.6595703E1,3.550702E0,2.208223E1,0E0,0E0,1.455734E0,5.7548294E0,0E0,0E0,0E0,0E0,4.7948837E0,4.0385323E0,0E0,0E0,0E0],"parents":[2147483647,0,0,1,1,2,2,3,3,6,6,7,7,12,12,13,13],"right_children":[2,4,6,8,-1,-1,10,12,-1,-1,-1,-1,14,16,-1,-1,-1],"split_conditions":[3.005182E-1,2.7368098E-2,3.120471E-1,4.4083163E-2,1.5739366E0,-1.5067501E-1,2.0378655E-2,3.4055553E-2,1.050613E0,-1.04236074E-1,2.325521E-1,7.756038E-1,4.462838E-2,6.1368906E-1,-1.4598735E-1,-1.558621E-1,2.569396E-1],"split_indices":[3840,43285,3840,9852,0,0,11573,19652,0,0,0,0,49268,44291,0,0,0],"split_type":[0,0,0,0,0,0,0,0,0,0,0,0,0,0,0,0,0],"sum_hessian":[1.5145668E2,9.053395E1,6.0922726E1,8.887779E1,1.6561599E0,5.7407005E1,3.5157201E0,8.652415E1,2.3536456E0,1.0280435E0,2.4876766E0,1.0347446E0,8.54894E1,8.322527E1,2.2641318E0,1.5651932E0,8.166008E1],"tree_param":{"num_deleted":"0","num_feature":"51653","num_nodes":"17","size_leaf_vector":"0"}},{"base_weights":[-1.01942256E-1,4.2377084E-1,-5.095634E-1,2.7538073E0,3.1515875E-1,-4.820934E-1,-1.0415149E0,7.227944E-1,2.1839662E-2,1.3109002E-1,-4.964232E-1,1.2400174E0,5.0775445E-1,-4.0718997E-1,4.7754383E-1,1.4862452E0,2.838985E-1,5.669497E-1,-1.7832224E-1,-8.599584E-1,-4.0480454E-2,5.271248E-1,-4.8131645E-2,-9.7142583E-1,-1.2096009E-1,-3.9727613E-1,3.831165E-1],"categories":[],"categories_nodes":[],"categories_segments":[],"categories_sizes":[],"default_left":[0,0,1,0,1,0,0,0,1,0,0,1,0,0,1,0,0,0,0,1,1,0,0,0,0,0,0],"id":53,"left_children":[1,3,5,-1,7,9,-1,11,13,-1,-1,15,17,19,21,-1,-1,-1,-1,23,25,-1,-1,-1,-1,-1,-1],"loss_changes":[2.3974102E1,1.1523992E1,4.1706276E-1,0E0,5.713232E0,6.0700417E-1,0E0,1.5969629E0,5.84384E0,0E0,0E0,7.988367E-1,7.441397E-1,2.5259619E0,4.025736E-1,0E0,0E0,0E0,0E0,4.469514E-1,1.5987123E0,0E0,0E0,0E0,0E0,0E0,0E0],"parents":[2147483647,0,0,1,1,2,2,4,4,5,5,7,7,8,8,11,11,12,12,13,13,14,14,19,19,20,20],"right_children":[2,4,6,-1,8,10,-1,12,14,-1,-1,16,18,20,22,-1,-1,-1,-1,24,26,-1,-1,-1,-1,-1,-1],"split_conditions":[2.9366356E-1,7.0474804E-3,4.3092165E-2,8.2614225E-1,2.3816641E-2,1.0888004E0,-3.1245446E-1,6.6379815E-2,7.449618E-2,3.9327007E-2,-1.4892697E-1,2.225477E-2,2.8301606E-1,8.854943E-2,6.924954E-2,4.4587356E-1,8.5169554E-2,1.7008492E-1,-5.3496674E-2,3.115304E-2,5.962339E-2,1.5813746E-1,-1.4439494E-2,-2.9142776E-1,-3.6288027E-2,-1.1918285E-1,1.1493496E-1],"split_indices":[18000,9928,49306,0,35430,18000,0,36902,30914,0,0,50840,36041,29604,1975,0,0,0,0,9228,46593,0,0,0,0,0,0],"split_type":[0,0,0,0,0,0,0,0,0,0,0,0,0,0,0,0,0,0,0,0,0,0,0,0,0,0,0],"sum_hessian":[1.09868286E2,4.796619E1,6.19021E1,1.0516121E0,4.6914577E1,6.0675106E1,1.2269934E0,1.9019012E1,2.7895567E1,1.199501E0,5.9475605E1,4.1854773E0,1.4833535E1,1.4423141E1,1.3472425E1,2.887427E0,1.2980504E0,1.3815184E1,1.018351E0,5.8523283E0,8.570812E0,1.2308726E1,1.1636992E0,4.8119907E0,1.0403373E0,4.6859627E0,3.8848495E0],"tree_param":{"num_deleted":"0","num_feature":"51653","num_nodes":"27","size_leaf_vector":"0"}},{"base_weights":[-1.040773E-1,-4.9667776E-1,1.4191519E0,3.005247E0,1.0980052E0],"categories":[],"categories_nodes":[],"categories_segments":[],"categories_sizes":[],"default_left":[1,0,0,0,0],"id":54,"left_children":[1,-1,3,-1,-1],"loss_changes":[4.688955E1,0E0,4.8936462E0,0E0,0E0],"parents":[2147483647,0,0,2,2],"right_children":[2,-1,4,-1,-1],"split_conditions":[4.5860104E-2,-1.4900333E-1,1.87525E-2,9.015742E-1,3.2940155E-1],"split_indices":[13713,0,26569,0,0],"split_type":[0,0,0,0,0],"sum_hessian":[7.622928E1,6.1143852E1,1.5085422E1,1.1328051E0,1.3952616E1],"tree_param":{"num_deleted":"0","num_feature":"51653","num_nodes":"5","size_leaf_vector":"0"}},{"base_weights":[-2.311127E-1,-4.9674687E-1,2.18763E0],"categories":[],"categories_nodes":[],"categories_segments":[],"categories_sizes":[],"default_left":[1,0,0],"id":55,"left_children":[1,-1,-1],"loss_changes":[4.5126717E1,0E0,0E0],"parents":[2147483647,0,0],"right_children":[2,-1,-1],"split_conditions":[4.862389E-2,-1.4902407E-1,6.56289E-1],"split_indices":[5593,0,0],"split_type":[0,0,0],"sum_hessian":[6.75447E1,6.1576767E1,5.967935E0],"tree_param":{"num_deleted":"0","num_feature":"51653","num_nodes":"3","size_leaf_vector":"0"}},{"base_weights":[-6.138697E-2,-4.9652022E-1,1.006065E0,3.6066973E0,7.125062E-1,-5.451694E-1,7.93624E-1,8.363565E-1,1.563296E-2,8.6564827E-1,2.501897E-1],"categories":[],"categories_nodes":[],"categories_segments":[],"categories_sizes":[],"default_left":[1,0,0,0,0,0,0,1,0,0,0],"id":56,"left_children":[1,-1,3,-1,5,-1,7,9,-1,-1,-1],"loss_changes":[4.0288067E1,0E0,1.6620941E1,0E0,2.8641758E0,0E0,7.4481773E-1,1.541338E-1,0E0,0E0,0E0],"parents":[2147483647,0,0,2,2,4,4,6,6,7,7],"right_children":[2,-1,4,-1,6,-1,8,10,-1,-1,-1],"split_conditions":[4.3232027E-2,-1.4895608E-1,3.6810014E-2,1.0820092E0,5.359478E-2,-1.6355082E-1,8.966514E-2,2.2657149E-2,4.689888E-3,2.596945E-1,7.505691E-2],"split_indices":[24853,0,41825,0,0,0,26569,15277,0,0,0],"split_type":[0,0,0,0,0,0,0,0,0,0,0],"sum_hessian":[8.466183E1,6.05246E1,2.413723E1,1.3034935E0,2.2833736E1,1.036883E0,2.1796854E1,2.0590845E1,1.2060084E0,1.9156755E1,1.4340905E0],"tree_param":{"num_deleted":"0","num_feature":"51653","num_nodes":"11","size_leaf_vector":"0"}},{"base_weights":[-1.3176073E-1,6.014038E-1,-4.967024E-1,5.274826E-1,7.8870595E-1],"categories":[],"categories_nodes":[],"categories_segments":[],"categories_sizes":[],"default_left":[0,1,0,0,0],"id":57,"left_children":[1,3,-1,-1,-1],"loss_changes":[2.5134819E1,1.7354012E-2,0E0,0E0,0E0],"parents":[2147483647,0,0,1,1],"right_children":[2,4,-1,-1,-1],"split_conditions":[3.6564726E-1,2.7997993E-2,-1.4901073E-1,1.5824479E-1,2.366118E-1],"split_indices":[5383,43285,0,0,0],"split_type":[0,0,0,0,0],"sum_hessian":[9.182362E1,3.0301079E1,6.152254E1,2.4462753E1,5.838325E0],"tree_param":{"num_deleted":"0","num_feature":"51653","num_nodes":"5","size_leaf_vector":"0"}},{"base_weights":[-2.0230399E-1,1.237298E0,-4.966172E-1],"categories":[],"categories_nodes":[],"categories_segments":[],"categories_sizes":[],"default_left":[0,0,0],"id":58,"left_children":[1,-1,-1],"loss_changes":[3.1981117E1,0E0,0E0],"parents":[2147483647,0,0],"right_children":[2,-1,-1],"split_conditions":[2.027328E-1,3.7118942E-1,-1.4898516E-1],"split_indices":[4550,0,0],"split_type":[0,0,0],"sum_hessian":[7.30314E1,1.1852438E1,6.1178967E1],"tree_param":{"num_deleted":"0","num_feature":"51653","num_nodes":"3","size_leaf_vector":"0"}},{"base_weights":[1.02540866E-1,-5.092637E-1,5.3608525E-1,4.6716473E-1,3.0173457E0,5.141374E-1,-1.5041254E0,5.597497E-1,-3.911371E-1,5.940849E-1,-4.5884764E-1,6.1802334E-1,-5.566128E-1,-1.3027416E-1,-5.57681E-1],"categories":[],"categories_nodes":[],"categories_segments":[],"categories_sizes":[],"default_left":[1,0,1,1,0,0,0,1,0,1,0,0,0,0,0],"id":59,"left_children":[1,-1,3,5,-1,7,-1,9,-1,11,13,-1,-1,-1,-1],"loss_changes":[3.7205265E1,0E0,1.2609516E1,8.268669E0,0E0,3.5143223E0,0E0,2.944254E0,0E0,2.391636E0,2.6564658E-2,0E0,0E0,0E0,0E0],"parents":[2147483647,0,0,2,2,3,3,5,5,7,7,9,9,10,10],"right_children":[2,-1,4,6,-1,8,-1,10,-1,12,14,-1,-1,-1,-1],"split_conditions":[1.656748E-2,-1.5277912E-1,2.7323142E-1,1.01767436E-1,9.0520376E-1,5.140616E-1,-4.5123762E-1,6.3378856E-2,-1.1734113E-1,8.908112E-2,6.953275E-2,1.8540701E-1,-1.6698384E-1,-3.908225E-2,-1.673043E-1],"split_indices":[8762,0,9475,44084,0,10176,0,11756,0,40104,10176,0,0,0,0],"split_type":[0,0,0,0,0,0,0,0,0,0,0,0,0,0,0],"sum_hessian":[1.3823857E2,5.726015E1,8.097842E1,7.994608E1,1.0323392E0,7.880741E1,1.1386654E0,7.539053E1,3.4168823E0,7.333529E1,2.0552435E0,7.2294235E1,1.0410525E0,1.0112944E0,1.0439491E0],"tree_param":{"num_deleted":"0","num_feature":"51653","num_nodes":"15","size_leaf_vector":"0"}},{"base_weights":[-5.1974554E-2,-5.7513463E-1,3.983446E-1,-4.6216235E-1,-1.9930154E0,-1.6553056E0,6.463477E-1,-4.8015457E-1,2.7820334E-1,-2.342793E0,-4.541396E-1,-3.1913908E0,4.359678E-1,5.1538926E-1,2.531723E0,2.1608977E-1,-4.9617207E-1,-5.430809E0,-8.902041E-1,5.453484E-1,-4.2657998E-1,1.7770407E-1,3.3731027E0,2.7026393E-2,-1.5434679E0,6.445282E-2,5.528937E-1],"categories":[],"categories_nodes":[],"categories_segments":[],"categories_sizes":[],"default_left":[1,1,0,1,1,0,1,0,0,0,0,0,0,0,0,0,0,0,0,0,0,0,0,0,0,0,0],"id":60,"left_children":[1,3,5,7,9,11,13,15,-1,-1,-1,17,-1,19,21,-1,-1,-1,23,25,-1,-1,-1,-1,-1,-1,-1],"loss_changes":[3.2329174E1,9.240612E0,3.8665104E1,9.3361855E-1,1.2934761E0,2.7843508E1,1.5134476E1,7.6520157E-1,0E0,0E0,0E0,2.0249691E1,0E0,2.02499E0,7.4592724E0,0E0,0E0,0E0,2.1968565E0,1.8931007E-1,0E0,0E0,0E0,0E0,0E0,0E0,0E0],"parents":[2147483647,0,0,1,1,2,2,3,3,4,4,5,5,6,6,7,7,11,11,13,13,14,14,18,18,19,19],"right_children":[2,4,6,8,10,12,14,16,-1,-1,-1,18,-1,20,22,-1,-1,-1,24,26,-1,-1,-1,-1,-1,-1,-1],"split_conditions":[1.6929798E-2,1.9383177E-2,1.3219123E-1,5.0809696E-2,4.9756065E-2,1.6640845E-1,2.562608E-1,3.362132E-2,8.3461E-2,-7.0283794E-1,-1.3624188E-1,4.588962E-2,1.3079035E-1,1.031533E0,6.636904E-2,6.4826936E-2,-1.4885163E-1,-1.6292428E0,1.9306052E-2,6.874791E-2,-1.27974E-1,5.331122E-2,1.0119308E0,8.107918E-3,-4.6304038E-1,1.9335847E-2,1.6586812E-1],"split_indices":[7532,8990,44391,39561,39665,5321,24651,7532,0,0,0,19713,0,19256,7532,0,0,0,35528,46233,0,0,0,0,0,0,0],"split_type":[0,0,0,0,0,0,0,0,0,0,0,0,0,0,0,0,0,0,0,0,0,0,0,0,0,0,0],"sum_hessian":[1.3525453E2,6.243882E1,7.281571E1,5.9059124E1,3.379693E0,7.23446E0,6.558125E1,5.8001057E1,1.0580672E0,2.3281193E0,1.0515736E0,3.8675847E0,3.3668754E0,6.251249E1,3.0687642E0,1.0234435E0,5.6977615E1,1.2708466E0,2.596738E0,6.0993656E1,1.5188345E0,1.1269578E0,1.9418064E0,1.4788927E0,1.1178454E0,1.0896194E0,5.9904037E1],"tree_param":{"num_deleted":"0","num_feature":"51653","num_nodes":"27","size_leaf_vector":"0"}},{"base_weights":[-2.5509205E-1,2.2201784E0,-4.9711955E-1,6.069711E-1,2.467299E0],"categories":[],"categories_nodes":[],"categories_segments":[],"categories_sizes":[],"default_left":[0,0,0,0,0],"id":61,"left_children":[1,3,-1,-1,-1],"loss_changes":[4.186017E1,9.9101067E-1,0E0,0E0,0E0],"parents":[2147483647,0,0,1,1],"right_children":[2,4,-1,-1,-1],"split_conditions":[1.1051254E0,1.4912838E-2,-1.4913587E-1,1.8209133E-1,7.4018973E-1],"split_indices":[10206,11647,0,0,0],"split_type":[0,0,0,0,0],"sum_hessian":[6.703138E1,5.2424445E0,6.1788933E1,1.1554992E0,4.0869455E0],"tree_param":{"num_deleted":"0","num_feature":"51653","num_nodes":"5","size_leaf_vector":"0"}},{"base_weights":[-1.638719E-1,6.529511E-1,-4.997018E-1],"categories":[],"categories_nodes":[],"categories_segments":[],"categories_sizes":[],"default_left":[0,0,0],"id":62,"left_children":[1,-1,-1],"loss_changes":[2.5276617E1,0E0,0E0],"parents":[2147483647,0,0],"right_children":[2,-1,-1],"split_conditions":[9.0554804E-1,1.9588535E-1,-1.4991054E-1],"split_indices":[35033,0,0],"split_type":[0,0,0],"sum_hessian":[8.995553E1,2.593377E1,6.402176E1],"tree_param":{"num_deleted":"0","num_feature":"51653","num_nodes":"3","size_leaf_vector":"0"}},{"base_weights":[-1.7699257E-1,-5.312126E-1,5.7753897E-1,-4.6479824E-1,-1.5519063E0,3.6522184E-2,-4.939385E-1,-2.0210242E0,-5.198898E-1,-3.577791E-1,6.7671084E-1],"categories":[],"categories_nodes":[],"categories_segments":[],"categories_sizes":[],"default_left":[1,1,0,1,1,1,0,0,0,0,0],"id":63,"left_children":[1,3,-1,5,7,9,-1,-1,-1,-1,-1],"loss_changes":[2.593999E1,3.738371E0,0E0,9.412527E-1,6.881285E-1,1.3534942E0,0E0,0E0,0E0,0E0,0E0],"parents":[2147483647,0,0,1,1,3,3,4,4,5,5],"right_children":[2,4,-1,6,8,10,-1,-1,-1,-1,-1],"split_conditions":[2.4829386E-2,2.5609588E-2,1.732617E-1,4.4552935E-3,2.7366135E-2,1.1171728E-2,-1.4818156E-1,-6.0630727E-1,-1.5596694E-1,-1.0733373E-1,2.0301326E-1],"split_indices":[10129,29879,0,12332,5314,39561,0,0,0,0,0],"split_type":[0,0,0,0,0,0,0,0,0,0,0],"sum_hessian":[9.490742E1,6.478814E1,3.0119272E1,6.219652E1,2.5916207E0,3.4027796E0,5.8793743E1,1.122876E0,1.4687446E0,2.3787863E0,1.0239931E0],"tree_param":{"num_deleted":"0","num_feature":"51653","num_nodes":"11","size_leaf_vector":"0"}},{"base_weights":[-2.7468234E-1,5.335084E-1,-4.9668673E-1],"categories":[],"categories_nodes":[],"categories_segments":[],"categories_sizes":[],"default_left":[0,0,0],"id":64,"left_children":[1,-1,-1],"loss_changes":[1.4433866E1,0E0,0E0],"parents":[2147483647,0,0],"right_children":[2,-1,-1],"split_conditions":[5.5482703E-1,1.6005254E-1,-1.4900602E-1],"split_indices":[5894,0,0],"split_type":[0,0,0],"sum_hessian":[7.796963E1,1.6499878E1,6.146975E1],"tree_param":{"num_deleted":"0","num_feature":"51653","num_nodes":"3","size_leaf_vector":"0"}},{"base_weights":[-2.1554923E-1,6.891025E-1,-5.1016253E-1,5.795777E-1,1.405615E0,5.971949E-1,1.6683531E-1],"categories":[],"categories_nodes":[],"categories_segments":[],"categories_sizes":[],"default_left":[0,1,0,0,0,0,0],"id":65,"left_children":[1,3,-1,5,-1,-1,-1],"loss_changes":[2.2511425E1,8.2162E-1,0E0,4.425192E-2,0E0,0E0,0E0],"parents":[2147483647,0,0,1,1,3,3],"right_children":[2,4,-1,6,-1,-1,-1],"split_conditions":[1.9354483E-1,3.106561E-2,-1.5304877E-1,1.9667676E-1,4.216845E-1,1.7915848E-1,5.0050594E-2],"split_indices":[50078,48376,0,12895,0,0,0],"split_type":[0,0,0,0,0,0,0],"sum_hessian":[8.214449E1,1.98508E1,6.229369E1,1.8787817E1,1.0629838E0,1.7590117E1,1.1977003E0],"tree_param":{"num_deleted":"0","num_feature":"51653","num_nodes":"7","size_leaf_vector":"0"}},{"base_weights":[-1.1296847E-1,-3.5295954E-1,4.6369237E-1,2.0916777E0,-4.3775597E-1,-7.03381E-1,5.0832206E-1,2.8021805E0,3.1140736E-1,-1.2004116E0,-2.7067292E-1,-7.7466816E-2,5.503658E-1,2.5499845E-1,-1.340497E0,3.5395753E-1,-5.0861335E-1,3.2683012E-1,-5.751123E-1,1.1808165E0,5.042503E-1,-2.412201E-1,-1.4611688E0,4.9252433E-1,-1.1754214E0,-1.0339293E0,-4.823124E-1,-1.7985448E0,-8.82153E-1,6.1093885E-1,-1.0305983E0,-4.912641E-1,-1.3016348E-2],"categories":[],"categories_nodes":[],"categories_segments":[],"categories_sizes":[],"default_left":[1,0,0,0,0,0,0,0,0,0,0,1,0,0,0,1,0,0,0,0,0,0,1,1,0,0,1,0,0,0,0,0,0],"id":66,"left_children":[1,3,5,7,9,-1,11,-1,-1,13,15,17,19,-1,21,23,25,-1,-1,-1,-1,-1,27,29,-1,-1,31,-1,-1,-1,-1,-1,-1],"loss_changes":[2.0883125E1,2.2948189E1,2.6716795E0,3.853197E0,1.2870007E1,0E0,1.1108599E0,0E0,0E0,4.076458E0,1.2996151E1,9.487195E-1,5.847254E-1,0E0,1.8852615E0,5.7448397E0,3.6974335E-1,0E0,0E0,0E0,0E0,0E0,1.3441505E0,4.7880435E0,0E0,0E0,2.529421E-1,0E0,0E0,0E0,0E0,0E0,0E0],"parents":[2147483647,0,0,1,1,2,2,3,3,4,4,6,6,9,9,10,10,11,11,12,12,14,14,15,15,16,16,22,22,23,23,26,26],"right_children":[2,4,6,8,10,-1,12,-1,-1,14,16,18,20,-1,22,24,26,-1,-1,-1,-1,-1,28,30,-1,-1,32,-1,-1,-1,-1,-1,-1],"split_conditions":[1.06567174E-1,2.4928287E-2,1.5880013E-1,1.327714E-2,2.3049879E-1,-2.1101432E-1,9.308097E-2,8.406542E-1,9.342221E-2,3.6024377E-2,9.517656E-2,3.401089E-2,6.482276E-2,7.649954E-2,2.81039E-2,4.4278163E-2,9.74604E-2,9.804904E-2,-1.7253369E-1,3.5424498E-1,1.512751E-1,-7.236604E-2,4.7910668E-2,6.6167206E-2,-3.526264E-1,-3.1017882E-1,4.15503E-2,-5.395635E-1,-2.646459E-1,1.8328166E-1,-3.0917948E-1,-1.4737923E-1,-3.9049045E-3],"split_indices":[45898,45898,35430,16497,45896,0,48529,0,0,24489,45898,39307,28651,0,6377,17009,45898,0,0,0,0,0,42731,27496,0,0,16497,0,0,0,0,0,0],"split_type":[0,0,0,0,0,0,0,0,0,0,0,0,0,0,0,0,0,0,0,0,0,0,0,0,0,0,0,0,0,0,0,0,0],"sum_hessian":[1.4871417E2,1.0528517E2,4.3428997E1,2.736156E0,1.0254901E2,1.0559285E0,4.237307E1,1.5453783E0,1.1907777E0,1.7317638E1,8.523138E1,2.7811558E0,3.9591915E1,1.4484764E0,1.5869162E1,2.3376598E1,6.185478E1,1.7238849E0,1.0572709E0,1.0214839E0,3.857043E1,1.86635E0,1.4002811E1,2.2056192E1,1.3204058E0,1.1225351E0,6.0732243E1,7.516786E0,6.4860253E0,2.1020828E1,1.0353646E0,5.954954E1,1.1827022E0],"tree_param":{"num_deleted":"0","num_feature":"51653","num_nodes":"33","size_leaf_vector":"0"}},{"base_weights":[-2.444099E-1,6.571338E-1,-4.9670243E-1,9.0835285E-1,5.286347E-1,3.7881926E-1,1.1548829E0],"categories":[],"categories_nodes":[],"categories_segments":[],"categories_sizes":[],"default_left":[0,1,0,0,0,0,0],"id":67,"left_children":[1,3,-1,5,-1,-1,-1],"loss_changes":[1.8385658E1,9.414005E-2,0E0,1.6673994E-1,0E0,0E0,0E0],"parents":[2147483647,0,0,1,1,3,3],"right_children":[2,4,-1,6,-1,-1,-1],"split_conditions":[4.6387357E-1,1.1675855E-2,-1.4901073E-1,6.049162E-2,1.5859042E-1,1.13645785E-1,3.4646487E-1],"split_indices":[45299,25987,0,6377,0,0,0],"split_type":[0,0,0,0,0,0,0],"sum_hessian":[7.839784E1,1.6791246E1,6.1606598E1,3.6284988E0,1.3162747E1,1.9584516E0,1.6700472E0],"tree_param":{"num_deleted":"0","num_feature":"51653","num_nodes":"7","size_leaf_vector":"0"}},{"base_weights":[-1.2401325E-1,-4.965431E-1,2.0553677E0,6.1174506E-1,2.1600862E0,6.470747E-1,2.2738516E0,2.396866E0,6.8182135E-1],"categories":[],"categories_nodes":[],"categories_segments":[],"categories_sizes":[],"default_left":[1,0,0,0,0,0,0,0,0],"id":68,"left_children":[1,-1,3,-1,5,-1,7,-1,-1],"loss_changes":[5.8949776E1,0E0,2.8261566E-1,0E0,1.634903E-1,0E0,1.7860413E-2,0E0,0E0],"parents":[2147483647,0,0,2,2,4,4,6,6],"right_children":[2,-1,4,-1,6,-1,8,-1,-1],"split_conditions":[4.3864477E-2,-1.4896294E-1,1.7194246E-1,1.8352352E-1,2.9479295E-2,1.9412242E-1,7.9867594E-2,7.190598E-1,2.045464E-1],"split_indices":[23662,0,353,0,32365,0,23728,0,0],"split_type":[0,0,0,0,0,0,0,0,0],"sum_hessian":[7.0351524E1,6.0741E1,9.610527E0,1.1127166E0,8.49781E0,1.0619754E0,7.435835E0,6.4332075E0,1.0026276E0],"tree_param":{"num_deleted":"0","num_feature":"51653","num_nodes":"9","size_leaf_vector":"0"}},{"base_weights":[-2.3678511E-1,4.8433676E-1,-4.6819422E-1,5.53752E-1,-4.0051252E-1,-4.9363258E-1,3.1615382E-1,-5.09661E-1,2.4714637E-1],"categories":[],"categories_nodes":[],"categories_segments":[],"categories_sizes":[],"default_left":[0,1,1,0,0,1,0,0,0],"id":69,"left_children":[1,3,5,-1,-1,7,-1,-1,-1],"loss_changes":[1.4285717E1,1.509131E0,1.4388075E0,0E0,0E0,8.6996365E-1,0E0,0E0,0E0],"parents":[2147483647,0,0,1,1,2,2,5,5],"right_children":[2,4,6,-1,-1,8,-1,-1,-1],"split_conditions":[1.321781E-1,6.335503E-2,1.3539839E-1,1.6612561E-1,-1.2015376E-1,7.454693E-2,9.484615E-2,-1.5289831E-1,7.414392E-2],"split_indices":[8015,22677,8015,0,0,26549,0,0,0],"split_type":[0,0,0,0,0,0,0,0,0],"sum_hessian":[8.324882E1,1.9959044E1,6.3289776E1,1.8854147E1,1.1048977E0,6.1660614E1,1.6291612E0,6.0660088E1,1.0005274E0],"tree_param":{"num_deleted":"0","num_feature":"51653","num_nodes":"9","size_leaf_vector":"0"}},{"base_weights":[-1.3516767E-1,-4.9650374E-1,1.9450705E0,2.2517612E0,3.1207296E-1,2.3739498E0,6.744263E-1],"categories":[],"categories_nodes":[],"categories_segments":[],"categories_sizes":[],"default_left":[1,0,1,1,0,0,0],"id":70,"left_children":[1,-1,3,5,-1,-1,-1],"loss_changes":[5.4536133E1,0E0,4.681488E0,1.12327576E-1,0E0,0E0,0E0],"parents":[2147483647,0,0,2,2,3,3],"right_children":[2,-1,4,6,-1,-1,-1],"split_conditions":[6.167771E-2,-1.4895113E-1,7.916518E-2,5.599556E-2,9.3621895E-2,7.1218497E-1,2.023279E-1],"split_indices":[18741,0,4322,47092,0,0,0],"split_type":[0,0,0,0,0,0,0],"sum_hessian":[7.026897E1,6.0518295E1,9.750667E0,7.8899546E0,1.8607124E0,6.853971E0,1.0359832E0],"tree_param":{"num_deleted":"0","num_feature":"51653","num_nodes":"7","size_leaf_vector":"0"}},{"base_weights":[-2.7924827E-1,-4.9644718E-1,3.1609995E0,5.7901235E0,-3.1765205E-1],"categories":[],"categories_nodes":[],"categories_segments":[],"categories_sizes":[],"default_left":[1,0,0,0,0],"id":71,"left_children":[1,-1,3,-1,-1],"loss_changes":[4.952158E1,0E0,3.7935562E1,0E0,0E0],"parents":[2147483647,0,0,2,2],"right_children":[2,-1,4,-1,-1],"split_conditions":[4.575554E-2,-1.4893416E-1,1.8118873E-1,1.7370371E0,-9.5295615E-2],"split_indices":[19682,0,36689,0,0],"split_type":[0,0,0,0,0],"sum_hessian":[6.317446E1,6.02277E1,2.9467616E0,1.2998652E0,1.6468964E0],"tree_param":{"num_deleted":"0","num_feature":"51653","num_nodes":"5","size_leaf_vector":"0"}},{"base_weights":[-2.802148E-1,-4.965788E-1,3.8275087E0,7.2828424E-1,4.879489E0],"categories":[],"categories_nodes":[],"categories_segments":[],"categories_sizes":[],"default_left":[1,0,1,0,0],"id":72,"left_children":[1,-1,3,-1,-1],"loss_changes":[5.9082317E1,0E0,7.3167076E0,0E0,0E0],"parents":[2147483647,0,0,2,2],"right_children":[2,-1,4,-1,-1],"split_conditions":[5.216892E-2,-1.4897364E-1,3.0930918E-2,2.1848528E-1,1.4638467E0],"split_indices":[47474,0,27586,0,0],"split_type":[0,0,0,0,0],"sum_hessian":[6.333844E1,6.1004303E1,2.3341374E0,1.0203619E0,1.3137757E0],"tree_param":{"num_deleted":"0","num_feature":"51653","num_nodes":"5","size_leaf_vector":"0"}},{"base_weights":[-2.232672E-1,-4.9680904E-1,1.701958E0],"categories":[],"categories_nodes":[],"categories_segments":[],"categories_sizes":[],"default_left":[1,0,0],"id":73,"left_children":[1,-1,-1],"loss_changes":[3.8176807E1,0E0,0E0],"parents":[2147483647,0,0],"right_children":[2,-1,-1],"split_conditions":[6.822393E-2,-1.4904271E-1,5.105874E-1],"split_indices":[20577,0,0],"split_type":[0,0,0],"sum_hessian":[6.988712E1,6.1842323E1,8.044798E0],"tree_param":{"num_deleted":"0","num_feature":"51653","num_nodes":"3","size_leaf_vector":"0"}},{"base_weights":[-3.4140027E-1,4.409047E0,-4.9682945E-1],"categories":[],"categories_nodes":[],"categories_segments":[],"categories_sizes":[],"default_left":[0,0,0],"id":74,"left_children":[1,-1,-1],"loss_changes":[4.9509743E1,0E0,0E0],"parents":[2147483647,0,0],"right_children":[2,-1,-1],"split_conditions":[2.279886E-1,1.3227142E0,-1.4904884E-1],"split_indices":[12025,0,0],"split_type":[0,0,0],"sum_hessian":[6.3087048E1,1.1316943E0,6.1955357E1],"tree_param":{"num_deleted":"0","num_feature":"51653","num_nodes":"3","size_leaf_vector":"0"}},{"base_weights":[2.7791664E-1,1.1832743E0,-4.6790162E-1,7.783128E-1,4.80315E0,-4.9870175E-1,3.795265E-1,2.9380476E0,6.545934E-1,7.1634394E-1,5.7077584E0,4.0019572E-1,1.7910718E0,7.460581E0,1.6650513E0,-3.2593742E-1,5.011022E-1,2.1189375E-1,3.4851952E0,-4.8424357E-1,1.7546867E-1,5.554606E-1,-2.8663847E-1,-3.793029E-1,6.0360765E-1],"categories":[],"categories_nodes":[],"categories_segments":[],"categories_sizes":[],"default_left":[0,1,1,0,1,0,0,0,1,0,0,0,1,0,0,1,1,1,0,0,0,0,0,0,0],"id":75,"left_children":[1,3,5,7,9,-1,-1,-1,11,-1,13,15,17,-1,-1,19,21,23,-1,-1,-1,-1,-1,-1,-1],"loss_changes":[7.649163E1,7.114216E1,1.8174639E0,1.067131E1,1.4197159E1,0E0,0E0,0E0,1.2544434E1,0E0,1.5258118E1,3.0037847E0,2.0936228E1,0E0,0E0,5.084967E-1,1.6335392E0,1.4465616E0,0E0,0E0,0E0,0E0,0E0,0E0,0E0],"parents":[2147483647,0,0,1,1,2,2,3,3,4,4,8,8,10,10,11,11,12,12,15,15,16,16,17,17],"right_children":[2,4,6,8,10,-1,-1,-1,12,-1,14,16,18,-1,-1,20,22,24,-1,-1,-1,-1,-1,-1,-1],"split_conditions":[2.8044683E-1,3.847947E-2,3.441772E-1,2.976802E-2,4.6942066E-2,-1.4961053E-1,1.13857955E-1,8.8141435E-1,2.7202688E-2,2.1490319E-1,2.565281E-2,1.1556692E-1,2.2805974E-2,2.2381744E0,4.995154E-1,7.4946925E-2,4.1217923E-2,3.8044192E-2,1.0455586E0,-1.4527307E-1,5.2640602E-2,1.6663818E-1,-8.599155E-2,-1.1379087E-1,1.8108231E-1],"split_indices":[21855,43285,21855,21855,31925,0,0,0,43285,0,14718,25402,41825,0,0,24301,13062,25460,0,0,0,0,0,0,0],"split_type":[0,0,0,0,0,0,0,0,0,0,0,0,0,0,0,0,0,0,0,0,0,0,0,0,0],"sum_hessian":[1.11462006E2,5.008124E1,6.1380764E1,4.6135048E1,3.9461932E0,5.962517E1,1.7555908E0,1.2671473E0,4.48679E1,1.0399281E0,2.906265E0,3.776618E1,7.101722E0,1.4375398E0,1.4687252E0,4.33573E0,3.343045E1,4.257845E0,2.8438768E0,3.321333E0,1.014397E0,3.1548313E1,1.8821365E0,1.7094822E0,2.548363E0],"tree_param":{"num_deleted":"0","num_feature":"51653","num_nodes":"25","size_leaf_vector":"0"}},{"base_weights":[4.8679173E-2,1.3151945E-1,-8.525231E-1,1.1363114E-1,3.6885834E0,-3.395488E-1,-1.3249006E0,7.148051E-1,4.676326E-2,5.2460394E0,1.7817207E-1,-1.29392E0,-3.0244494E-2,2.7071145E-1,-1.4706095E0,8.4280574E-1,-4.4439915E-1,-5.565925E-1,2.1161842E-1,-4.1194212E-1,-2.8924274E0,-8.156903E-1,1.8602824E-1,-1.1874565E0,-2.4657254E0,1.2347157E0,4.9100015E-1,-7.331777E-1,2.873452E-1,-2.248072E-1,-1.5811182E0,-7.9355997E-1,2.603138E-1,-8.394437E-1,3.776207E-1,-1.0484852E0,1.7482842E-3,5.9968853E-1,-3.4640026E-1,-3.2624143E-1,-1.225506E0,-2.8997317E-1,-4.150079E0,1.0135255E0,2.6584544E0,1.7987524E-1,9.233041E-1,-1.2946716E-1,-1.7101492E0,-1.6427597E-1,-1.8791773E0,3.407484E-2,-1.4529772E0,-2.3199211E-1,3.4133783E-1,1.7404571E-1,-1.3103383E0,-8.037678E-1,2.76065E-1],"categories":[],"categories_nodes":[],"categories_segments":[],"categories_sizes":[],"default_left":[1,1,0,0,1,0,1,0,1,0,0,1,1,0,1,1,1,1,0,0,0,0,0,1,1,1,1,0,0,1,1,1,0,0,0,0,0,0,1,0,0,0,0,0,0,0,0,0,0,0,0,0,0,0,0,0,0,0,0],"id":76,"left_children":[1,3,5,7,9,11,13,15,17,-1,-1,19,21,-1,23,25,27,29,31,33,-1,35,37,39,41,43,45,-1,-1,47,49,51,53,-1,-1,-1,-1,-1,55,-1,-1,57,-1,-1,-1,-1,-1,-1,-1,-1,-1,-1,-1,-1,-1,-1,-1,-1,-1],"loss_changes":[5.2461605E1,4.049783E1,1.3886635E1,2.5728682E1,1.6483524E1,8.730364E0,7.4790306E0,9.88224E0,5.7587788E1,0E0,0E0,9.026404E0,4.13696E0,0E0,4.9794273E0,7.397537E0,1.6954885E0,4.1885246E1,2.2454119E1,2.2870812E0,0E0,1.001044E0,4.4385195E0,3.7929535E-1,1.8173546E1,5.7453346E0,4.171648E0,0E0,0E0,1.3236472E1,1.245858E1,1.1646025E1,1.740159E1,0E0,0E0,0E0,0E0,0E0,4.7596464E0,0E0,0E0,1.2055508E0,0E0,0E0,0E0,0E0,0E0,0E0,0E0,0E0,0E0,0E0,0E0,0E0,0E0,0E0,0E0,0E0,0E0],"parents":[2147483647,0,0,1,1,2,2,3,3,4,4,5,5,6,6,7,7,8,8,11,11,12,12,14,14,15,15,16,16,17,17,18,18,19,19,21,21,22,22,23,23,24,24,25,25,26,26,29,29,30,30,31,31,32,32,38,38,41,41],"right_children":[2,4,6,8,10,12,14,16,18,-1,-1,20,22,-1,24,26,28,30,32,34,-1,36,38,40,42,44,46,-1,-1,48,50,52,54,-1,-1,-1,-1,-1,56,-1,-1,58,-1,-1,-1,-1,-1,-1,-1,-1,-1,-1,-1,-1,-1,-1,-1,-1,-1],"split_conditions":[2.7530842E-2,4.230611E-2,3.0556306E-2,2.7217899E-2,3.0382933E-2,2.4363216E-2,2.3945216E-2,6.857388E-2,4.1678578E-2,1.5738119E0,5.3451624E-2,3.594727E-2,3.89032E-2,8.121344E-2,6.339918E-2,1.011136E-2,9.855525E-2,1.76044E-2,1.7582657E-2,2.3368357E-1,-8.677283E-1,2.9195905E-2,5.739756E-2,2.669426E-2,5.8568552E-2,5.4878546E-3,1.3914923E-2,-2.1995333E-1,8.620356E-2,6.753593E-2,8.582123E-3,2.038236E-2,1.3609493E-1,-2.518331E-1,1.1328621E-1,-3.1454557E-1,5.244853E-4,1.7990656E-1,1.7887083E-1,-9.7872436E-2,-3.676518E-1,1.0241525E-1,-1.2450237E0,3.0405766E-1,7.975364E-1,5.3962573E-2,2.7699125E-1,-3.884015E-2,-5.130448E-1,-4.9282793E-2,-5.6375325E-1,1.0222452E-2,-4.3589318E-1,-6.959764E-2,1.0240135E-1,5.2213717E-2,-3.9310148E-1,-2.4113035E-1,8.28195E-2],"split_indices":[16379,25402,38712,43285,6377,25460,24892,25460,43285,0,0,46086,43285,0,43285,51307,25460,36902,25460,36902,0,41825,16379,43285,47092,32529,29420,0,0,21855,9928,36902,44084,0,0,0,0,0,5386,0,0,43285,0,0,0,0,0,0,0,0,0,0,0,0,0,0,0,0,0],"split_type":[0,0,0,0,0,0,0,0,0,0,0,0,0,0,0,0,0,0,0,0,0,0,0,0,0,0,0,0,0,0,0,0,0,0,0,0,0,0,0,0,0,0,0,0,0,0,0,0,0,0,0,0,0,0,0,0,0,0,0],"sum_hessian":[7.0021075E2,6.4204663E2,5.8164116E1,6.398607E2,2.1858847E0,2.8707865E1,2.9456251E1,6.307717E1,5.7678357E2,1.171642E0,1.0142428E0,6.2475295E0,2.2460335E1,2.3930306E0,2.7063221E1,5.7050537E1,6.0266376E0,1.2326563E2,4.535179E2,4.8366227E0,1.4109068E0,4.250836E0,1.82095E1,2.2775812E1,4.2874084E0,2.57999E1,3.1250635E1,4.3198686E0,1.7067692E0,9.4033104E1,2.9232527E1,2.0248508E1,4.332694E2,3.0967438E0,1.7398788E0,3.0885992E0,1.1622365E0,1.0176632E1,8.032868E0,1.3687842E0,2.1407028E1,2.3822758E0,1.9051324E0,2.3812325E1,1.9875755E0,1.89957E1,1.2254935E1,8.938302E1,4.650088E0,5.3503704E0,2.3882156E1,9.3995075E0,1.0849001E1,6.096709E1,3.723023E2,5.7485657E0,2.2843022E0,1.0286124E0,1.3536636E0],"tree_param":{"num_deleted":"0","num_feature":"51653","num_nodes":"59","size_leaf_vector":"0"}},{"base_weights":[-1.6791451E-1,4.8597047E-1,-4.8478955E-1,-7.87478E-1,6.0133433E-1,-4.9986938E-1,2.4713588E-1,6.353045E-1,-1.6291045E-1,-5.054948E-1,-7.1550824E-2,4.9781874E-1,7.363595E-1,4.2501575E-1,8.208523E-1],"categories":[],"categories_nodes":[],"categories_segments":[],"categories_sizes":[],"default_left":[0,1,1,0,1,1,0,1,0,0,0,0,1,0,0],"id":77,"left_children":[1,3,5,-1,7,9,-1,11,-1,-1,-1,-1,13,-1,-1],"loss_changes":[2.0369284E1,5.206638E0,8.514757E-1,0E0,8.8516045E-1,1.2033272E-1,0E0,3.677559E-2,0E0,0E0,0E0,0E0,3.6396027E-2,0E0,0E0],"parents":[2147483647,0,0,1,1,2,2,4,4,5,5,7,7,12,12],"right_children":[2,4,6,-1,8,10,-1,12,-1,-1,-1,-1,14,-1,-1],"split_conditions":[1.5041494E-1,1.6341202E-2,7.519865E-2,-2.3624341E-1,3.782037E-2,1.7070532E-1,7.4140765E-2,1.4543373E-2,-4.8873138E-2,-1.5164843E-1,-2.1465247E-2,1.4934562E-1,4.9445488E-2,1.2750474E-1,2.462557E-1],"split_indices":[22138,36773,26549,0,21431,24065,0,33139,0,0,0,0,23728,0,0],"split_type":[0,0,0,0,0,0,0,0,0,0,0,0,0,0,0],"sum_hessian":[9.617039E1,3.1217707E1,6.495268E1,2.1091983E0,2.9108507E1,6.395213E1,1.0005533E0,2.8031254E1,1.0772543E0,6.294524E1,1.0068884E0,1.4385683E1,1.3645571E1,4.199869E0,9.445702E0],"tree_param":{"num_deleted":"0","num_feature":"51653","num_nodes":"15","size_leaf_vector":"0"}},{"base_weights":[2.796411E-1,3.3792114E0,-4.7646467E-2,2.4112146E-1,3.7213683E0,-4.4630972E-1,6.759393E-1,6.9350004E-1,4.0539064E0,-4.963269E-1,8.5757303E-1,2.9891958E0,4.7566968E-1,1.0881611E0,4.4314165E0,5.4367095E-1,-7.1282685E-1,4.9558043E0,1.3949709E0,5.9819293E-1,-3.5293996E-1,1.5030574E0,5.6487784E0,6.358823E-1,-5.4315418E-2],"categories":[],"categories_nodes":[],"categories_segments":[],"categories_sizes":[],"default_left":[0,0,1,0,0,1,0,0,0,0,0,0,1,0,1,1,0,0,0,1,0,0,0,0,0],"id":78,"left_children":[1,3,5,-1,7,9,11,-1,13,-1,-1,-1,15,-1,17,19,-1,21,-1,23,-1,-1,-1,-1,-1],"loss_changes":[1.0139505E2,9.351036E0,2.6623514E1,0E0,5.784378E0,4.301798E0,1.3779115E1,0E0,3.5590744E0,0E0,0E0,0E0,2.924211E0,0E0,3.1421738E0,1.6901674E0,0E0,3.456955E0,0E0,7.4507713E-1,0E0,0E0,0E0,0E0,0E0],"parents":[2147483647,0,0,1,1,2,2,4,4,5,5,6,6,8,8,12,12,14,14,15,15,17,17,19,19],"right_children":[2,4,6,-1,8,10,12,-1,14,-1,-1,-1,16,-1,18,20,-1,22,-1,24,-1,-1,-1,-1,-1],"split_conditions":[1.7190503E-1,8.238417E-2,1.7899424E-1,7.233644E-2,1.485394E-1,1.4655715E-1,7.693542E-2,2.0805003E-1,1.1203258E-1,-1.4889808E-1,2.5727192E-1,8.967588E-1,6.146781E-2,3.2644835E-1,2.3710493E-2,7.0764944E-2,-2.1384807E-1,3.8742434E-2,4.1849127E-1,4.453633E-2,-1.05882E-1,4.509172E-1,1.6946336E0,1.9076471E-1,-1.6294627E-2],"split_indices":[24651,7617,24651,0,40709,14561,8990,0,7532,0,0,0,3828,0,46784,15692,0,4976,0,25505,0,0,0,0,0],"split_type":[0,0,0,0,0,0,0,0,0,0,0,0,0,0,0,0,0,0,0,0,0,0,0,0,0],"sum_hessian":[9.879198E1,8.544697E0,9.024728E1,1.0076604E0,7.5370364E0,5.843527E1,3.181201E1,1.051179E0,6.4858575E0,5.687296E1,1.5623095E0,1.4251109E0,3.03869E1,1.17076E0,5.3150973E0,2.9255562E1,1.1313374E0,3.993348E0,1.3217494E0,2.7892292E1,1.3632708E0,1.1972145E0,2.7961333E0,2.6393274E1,1.499018E0],"tree_param":{"num_deleted":"0","num_feature":"51653","num_nodes":"25","size_leaf_vector":"0"}},{"base_weights":[4.238882E-1,-4.7979778E-1,9.070723E-1,-4.962003E-1,2.403635E-1,7.816017E-1,2.6941602E0,6.962705E-1,3.889942E0,7.367342E-1,3.9100566E0,2.3059262E-2,9.7028935E-1,6.2159677E0,1.0975747E0,-1.9073151E-1,1.070231E0,2.4557672E0,8.585775E-1,7.490062E-1,-4.2890483E-1,1.6017148E-1,1.5443121E0,1.2632037E0,5.1442E-1],"categories":[],"categories_nodes":[],"categories_segments":[],"categories_sizes":[],"default_left":[1,1,1,0,0,1,1,0,0,0,1,0,0,0,0,0,1,0,0,0,0,0,0,0,0],"id":79,"left_children":[1,3,5,-1,-1,7,9,11,-1,-1,13,15,17,-1,-1,19,21,-1,23,-1,-1,-1,-1,-1,-1],"loss_changes":[7.497618E1,8.295517E-1,2.2914001E1,0E0,0E0,2.5319489E1,1.3568935E1,1.9174835E1,0E0,0E0,1.9320702E1,7.1731133E0,1.0160965E1,0E0,0E0,6.2972155E0,2.0949512E0,0E0,9.140213E0,0E0,0E0,0E0,0E0,0E0,0E0],"parents":[2147483647,0,0,1,1,2,2,5,5,6,6,7,7,10,10,11,11,12,12,15,15,16,16,18,18],"right_children":[2,4,6,-1,-1,8,10,12,-1,-1,14,16,18,-1,-1,20,22,-1,24,-1,-1,-1,-1,-1,-1],"split_conditions":[1.6591065E-2,1.9892067E-1,9.1285884E-2,-1.488601E-1,7.210905E-2,6.588875E-2,3.361029E-2,1.9106869E-2,1.1669827E0,2.2102027E-1,4.146931E-2,5.52919E-2,1.1033945E-2,1.8647903E0,3.2927242E-1,7.6722845E-2,3.56595E-2,7.3673016E-1,6.6585496E-2,2.2470187E-1,-1.2867145E-1,4.8051447E-2,4.6329364E-1,3.7896115E-1,1.5432599E-1],"split_indices":[16379,14561,43285,0,0,50313,14604,38712,0,0,7763,16379,9324,0,0,17446,33139,0,41825,0,0,0,0,0,0],"split_type":[0,0,0,0,0,0,0,0,0,0,0,0,0,0,0,0,0,0,0,0,0,0,0,0,0],"sum_hessian":[1.6971231E2,5.9130035E1,1.1058228E2,5.8117332E1,1.0127009E0,1.0467076E2,5.911523E0,1.0306538E2,1.6053846E0,2.8803976E0,3.0311255E0,3.0128828E1,7.293655E1,1.0006071E0,2.0305185E0,2.569981E1,4.429018E0,3.6337702E0,6.930278E1,4.7628183E0,2.0936993E1,1.9752085E0,2.4538093E0,3.0625696E1,3.8677082E1],"tree_param":{"num_deleted":"0","num_feature":"51653","num_nodes":"25","size_leaf_vector":"0"}},{"base_weights":[-2.58786E-1,-4.969602E-1,3.1753469E0],"categories":[],"categories_nodes":[],"categories_segments":[],"categories_sizes":[],"default_left":[1,0,0],"id":80,"left_children":[1,-1,-1],"loss_changes":[5.571266E1,0E0,0E0],"parents":[2147483647,0,0],"right_children":[2,-1,-1],"split_conditions":[6.052338E-2,-1.4908807E-1,9.526041E-1],"split_indices":[44291,0,0],"split_type":[0,0,0],"sum_hessian":[6.51856E1,6.1757687E1,3.4279149E0],"tree_param":{"num_deleted":"0","num_feature":"51653","num_nodes":"3","size_leaf_vector":"0"}},{"base_weights":[-6.728099E-2,-4.7957432E-1,6.673296E-1,-4.961231E-1,2.403635E-1,7.761638E-1,-3.735288E-1,9.986073E-1,2.0099764E-1,1.7928951E0,7.7382076E-1,-2.4140188E-1,3.9072222E-1,2.344311E0,3.9131054E-1,1.0109814E0,4.649732E-1,-3.813729E-1,5.5065926E-2,5.0042737E-1,-4.1763287E-2,6.621019E-1,1.7475277E0,5.140342E-1,2.942956E-2],"categories":[],"categories_nodes":[],"categories_segments":[],"categories_sizes":[],"default_left":[1,1,0,0,0,1,0,0,0,1,0,0,0,0,0,1,1,0,0,0,0,0,0,0,0],"id":81,"left_children":[1,3,5,-1,-1,7,-1,9,11,13,15,17,19,-1,-1,21,23,-1,-1,-1,-1,-1,-1,-1,-1],"loss_changes":[2.8224443E1,8.292551E-1,4.089136E0,0E0,0E0,3.7255745E0,0E0,2.5187511E0,9.1775846E-1,2.2253828E0,9.0777206E-1,1.6883846E-1,3.6478233E-1,0E0,0E0,1.358365E0,1.990304E-1,0E0,0E0,0E0,0E0,0E0,0E0,0E0,0E0],"parents":[2147483647,0,0,1,1,2,2,5,5,7,7,8,8,9,9,10,10,11,11,12,12,15,15,16,16],"right_children":[2,4,6,-1,-1,8,-1,10,12,14,16,18,20,-1,-1,22,24,-1,-1,-1,-1,-1,-1,-1,-1],"split_conditions":[7.1244347E-3,1.9892067E-1,1.6327041E-1,-1.4883694E-1,7.210905E-2,3.119706E-2,-1.1205865E-1,2.9212477E-2,7.609431E-2,1.1998315E-1,7.282291E-2,3.4179908E-1,6.1319366E-2,7.032933E-1,1.17393166E-1,2.3770824E-2,2.596703E-2,-1.14411876E-1,1.651978E-2,1.5012822E-1,-1.2528987E-2,1.9863059E-1,5.242583E-1,1.5421027E-1,8.828868E-3],"split_indices":[5336,14561,26896,0,0,33361,0,46032,32863,32863,46593,46935,35528,0,0,4976,17235,0,0,0,0,0,0,0,0],"split_type":[0,0,0,0,0,0,0,0,0,0,0,0,0,0,0,0,0,0,0,0,0,0,0,0,0],"sum_hessian":[9.1131744E1,5.859373E1,3.253801E1,5.758103E1,1.0127009E0,2.9688072E1,2.8499382E0,2.0877548E1,8.810524E0,3.0663934E0,1.7811155E1,2.562623E0,6.247901E0,1.7179121E0,1.3484813E0,8.788874E0,9.022282E0,1.5462193E0,1.0164037E0,4.858411E0,1.3894904E0,7.252509E0,1.5363647E0,7.946904E0,1.0753767E0],"tree_param":{"num_deleted":"0","num_feature":"51653","num_nodes":"25","size_leaf_vector":"0"}},{"base_weights":[-2.096927E-1,-4.8035073E-1,3.1840336E0,-4.9643904E-1,2.4803141E-1,7.2473127E-1,3.6266081E0,1.3151253E0,4.4374795E0],"categories":[],"categories_nodes":[],"categories_segments":[],"categories_sizes":[],"default_left":[1,1,1,0,0,0,0,0,0],"id":82,"left_children":[1,3,5,-1,-1,-1,7,-1,-1],"loss_changes":[6.1863964E1,8.4619045E-1,2.7949944E0,0E0,0E0,0E0,1.6108894E0,0E0,0E0],"parents":[2147483647,0,0,1,1,2,2,6,6],"right_children":[2,4,6,-1,-1,-1,8,-1,-1],